<?xml version="1.0"?>
<opencv_storage>
<opencv_ml_ann_mlp>
  <format>3</format>
  <layer_sizes>
    3840 25 8 5</layer_sizes>
  <activation_function>SIGMOID_SYM</activation_function>
  <f_param1>6.6666666666666663e-01</f_param1>
  <f_param2>1.7159000000000000e+00</f_param2>
  <min_val>-9.4999999999999996e-01</min_val>
  <max_val>9.4999999999999996e-01</max_val>
  <min_val1>-9.7999999999999998e-01</min_val1>
  <max_val1>9.7999999999999998e-01</max_val1>
  <training_params>
    <train_method>BACKPROP</train_method>
    <dw_scale>1.0000000000000001e-01</dw_scale>
    <moment_scale>1.0000000000000001e-01</moment_scale>
    <term_criteria>
      <iterations>2</iterations></term_criteria></training_params>
  <input_scale>
    2.5005639212258810e+00 -2.5957410946981463e-01
    2.3466052911172239e+00 -2.4629882524990468e-01
    1.2763394238784456e+00 -3.4889555185604570e-01
    2.2491350729277961e+00 -3.1129897203152890e-01
    1.9766412311498869e+00 -3.0094191754531152e-01
    2.3810775417994150e+00 -2.6914140610881510e-01
    1.6614867098321482e+00 -2.7020718118377496e-01
    2.7548947520929441e+00 -2.9233023897641391e-01
    1.1591627188086857e-01 -4.8799814574990802e-02
    1.6110121834498776e+00 -3.1402659631260588e-01
    1.1625239552462173e-01 -5.8059154858317426e-02
    1.1543780326589595e-01 -4.8598383151155729e-02
    1.1534093480221644e-01 -5.6539673922655118e-02
    1.1545433413001603e-01 -4.6607862682244074e-02
    1.1526148693286543e-01 -5.9425472501719548e-02
    1.1593216965562798e-01 -4.7469342823238676e-02
    1.1549264891444648e-01 -4.4625187296816117e-02
    1.1575725062049294e-01 -5.8212412076741542e-02
    1.1538256361944089e-01 -4.8841292789313505e-02
    6.6959303564667685e-02 -6.8349462116183285e-02
    6.6781454840187632e-02 -6.9092231824277178e-02
    5.7874441740992592e-02 -7.5630614178252134e-02
    5.8390775865591237e-02 -7.6372710301707572e-02
    5.1800461777887385e-02 -8.1076385966082104e-02
    5.2008086457538544e-02 -8.4220707481411888e-02
    4.3954229772082916e-02 -9.6121360608845699e-02
    3.3689559342359586e-02 -1.2741414657854336e-01
    3.3635666071432126e-02 -1.2344716198304155e-01
    3.3723466004937565e-02 -1.2318594790961623e-01
    3.2310726696837336e-02 -1.2778948309510407e-01
    3.1171567762983469e-02 -1.3345889219860971e-01
    2.9214558059861975e-02 -1.4088358390805411e-01
    3.1167958271038125e-02 -1.3678671421141875e-01
    3.8719334076364721e-02 -1.1370175842955546e-01
    3.5171283405476039e-02 -1.3123310474822950e-01
    3.2341244857049270e-02 -1.3380397382034112e-01
    2.6843302070553039e-02 -1.5678717610759005e-01
    2.4456457200925041e-02 -1.7322618647160401e-01
    2.1206381603445814e-02 -2.0186420688954820e-01
    2.2228153521200639e-02 -1.8836244973501859e-01
    1.9705541983708500e-02 -2.1480631751791121e-01
    2.0013260228846905e-02 -2.1666027740248794e-01
    1.9739281180934969e-02 -2.1767850907833824e-01
    2.0265991680709777e-02 -2.1238385283844180e-01
    1.9241180202636956e-02 -2.2323763743751460e-01
    1.8544976867706942e-02 -2.3299934604375055e-01
    1.6152125795770154e-02 -2.6895990785874707e-01
    1.4935365689245365e-02 -2.8964618073699139e-01
    1.2756231346472491e-02 -3.4817007910371972e-01
    1.1096252919028483e-02 -4.2147843267525492e-01
    1.0298028107461539e-02 -4.6839992897087174e-01
    9.4581065623439847e-03 -5.3935207214400105e-01
    9.2672692417404157e-03 -5.6117751148859696e-01
    9.1869725327031731e-03 -5.6984660768594142e-01
    9.1484849417619325e-03 -5.7487728732656496e-01
    8.9982955037844065e-03 -5.9126170306239201e-01
    8.6965856868460052e-03 -6.3505136841973175e-01
    8.8523578605942243e-03 -6.1473345987635120e-01
    9.0032847044763907e-03 -5.9251374702193071e-01
    8.9553720052939888e-03 -5.9845022288664718e-01
    8.8002823971918189e-03 -6.2068889110528225e-01
    8.6438184927142211e-03 -6.4709998049378226e-01
    8.8554074926748116e-03 -6.1392385024475760e-01
    9.3962056696231776e-03 -5.4292078342034911e-01
    9.5970951395464559e-03 -5.2358961614266075e-01
    1.0932137558611622e-02 -4.3030003036352965e-01
    1.0635142110649505e-02 -4.4769409643872549e-01
    1.1400455386588635e-02 -4.0568264081549316e-01
    1.3376429053038064e-02 -3.3134047329070987e-01
    1.3604003147182636e-02 -3.2494267724914094e-01
    1.3460437337607321e-02 -3.2922956652975877e-01
    1.6128329289627520e-02 -2.6499198469520652e-01
    1.8760045081337128e-02 -2.2691648531485864e-01
    2.2663181213687992e-02 -1.9024525129552619e-01
    2.3076203600276009e-02 -1.8655260788273881e-01
    2.4536276606351364e-02 -1.7673477209534516e-01
    2.6888914791210652e-02 -1.5897644431343230e-01
    2.6854025954748478e-02 -1.6694717404393805e-01
    2.8392073383089328e-02 -1.5869433404204253e-01
    2.9233141902570502e-02 -1.4849222253624048e-01
    2.8350541778346963e-02 -1.4943711179590038e-01
    2.7599734242919317e-02 -1.5518881710984045e-01
    3.0190169064102025e-02 -1.4140977689656095e-01
    3.1225334074729775e-02 -1.3660633465449831e-01
    2.9274649049501136e-02 -1.4367200888769013e-01
    3.1221546675652637e-02 -1.4444016576244834e-01
    3.0192187896503075e-02 -1.4239429793402661e-01
    3.1195491568676906e-02 -1.3748324484880559e-01
    2.5559573817160584e-02 -1.5990210886306691e-01
    2.5602154236811149e-02 -1.6146779627091506e-01
    2.5548906418292723e-02 -1.6107303631186623e-01
    2.7615588063993397e-02 -1.5072314039079210e-01
    2.6848276683249992e-02 -1.5179959896342729e-01
    2.8367133462044797e-02 -1.4703794438111800e-01
    2.9191208920524125e-02 -1.4046796264870434e-01
    3.5161316761301901e-02 -1.1663661707670619e-01
    3.6806482233939661e-02 -1.1041944670181898e-01
    3.8838516693448746e-02 -1.0706350045829585e-01
    3.6810211422346320e-02 -1.1204399993491573e-01
    3.1182802736564968e-02 -1.3095338496405196e-01
    2.9241893166993528e-02 -1.4071185500887776e-01
    2.9197156507913574e-02 -1.4019349774215017e-01
    3.1202996167783367e-02 -1.3193792843263419e-01
    3.2307006594897797e-02 -1.2643330262570729e-01
    3.2361790875538587e-02 -1.2511732758339716e-01
    3.3632217393665370e-02 -1.2227076035159544e-01
    3.2354019269570038e-02 -1.2598289394932924e-01
    3.0169516889196932e-02 -1.3497988006135514e-01
    2.7589253864699639e-02 -1.4797004667918492e-01
    2.7580863873205370e-02 -1.4919752199000369e-01
    2.7564626111741035e-02 -1.4786975322457618e-01
    2.6837422955594117e-02 -1.5183109526780755e-01
    2.7563666498093935e-02 -1.4780102139520035e-01
    2.6212028610301329e-02 -1.5582098668684319e-01
    2.6806910742148374e-02 -1.5104009109042077e-01
    2.6918345558431894e-02 -1.5123328859875634e-01
    2.6847197730242182e-02 -1.5151480795164360e-01
    2.6828002622998687e-02 -1.5270610489561537e-01
    2.6911069759537252e-02 -1.5075786138647340e-01
    2.6812901762813621e-02 -1.5119755100160992e-01
    2.6819483446543786e-02 -1.4984265030571867e-01
    2.7548018774173646e-02 -1.4641438351948347e-01
    2.6843144953759366e-02 -1.5031541955075170e-01
    2.6836162398904254e-02 -1.4990488408061511e-01
    2.9205863387941688e-02 -1.3838256839407667e-01
    2.7558724082182736e-02 -1.4602627270305360e-01
    2.7589202209105317e-02 -1.4612412519516910e-01
    2.7577162278652107e-02 -1.4612397175101241e-01
    2.5659199119042539e+00 -2.1900585176576098e-01
    1.2531126249376625e+00 -3.2375689502426341e-01
    1.5389476477049664e+00 -2.6092883992229532e-01
    9.4575728013668181e-01 -3.7415772443700329e-01
    1.3629818039755757e+00 -2.3738206735906797e-01
    1.1527952977671609e-01 -5.4515117887489729e-02
    1.1452630314739205e-01 -8.4672849270447867e-02
    1.1534142472339586e-01 -5.4544387700798502e-02
    6.7122758022696863e-02 -7.3161483657956786e-02
    1.1528451317292909e-01 -5.5581230111054626e-02
    1.1530427579610208e-01 -5.4526820157326246e-02
    8.1675104091676790e-02 -6.9899570053084406e-02
    4.7504728025384711e-02 -9.3804030426134513e-02
    3.6921817607066441e-02 -1.1638676761258661e-01
    3.5103449715480663e-02 -1.2405648203948415e-01
    3.5177795351297857e-02 -1.1867941338240626e-01
    3.2379209873234040e-02 -1.2761218008862829e-01
    3.2331705231269936e-02 -1.2895390621652991e-01
    3.3741414084608269e-02 -1.2644273859387806e-01
    3.3675140351781561e-02 -1.2662163500208523e-01
    3.2414812996187210e-02 -1.3051916051867304e-01
    3.2384874238515653e-02 -1.3009978889590545e-01
    3.3640300398092529e-02 -1.2660703598497799e-01
    2.9220600489326818e-02 -1.4081161343068910e-01
    2.8309220087693706e-02 -1.4742344716947758e-01
    2.5038973236976965e-02 -1.6689760823124555e-01
    2.6139985715158152e-02 -1.5910115872997643e-01
    2.7671224841663997e-02 -1.5370774952416819e-01
    2.4441541975479066e-02 -1.7063973884380021e-01
    2.3060695550882887e-02 -1.8052242295714205e-01
    2.1916507409128830e-02 -1.9252147684881799e-01
    1.9981945277128776e-02 -2.0883091828842426e-01
    2.0580812734154189e-02 -2.0604550695785276e-01
    1.8798363990758831e-02 -2.2976500946951711e-01
    1.7570857129468962e-02 -2.4303312421752224e-01
    1.5912428066664885e-02 -2.7757734957351754e-01
    1.5047267890548303e-02 -2.8671380109787542e-01
    1.5424288183627406e-02 -2.8139096447570322e-01
    1.5083987023550894e-02 -2.9122359721709162e-01
    1.4466800220714244e-02 -3.0208414209436063e-01
    1.2423843294677326e-02 -3.6385954894861211e-01
    1.2032371751777186e-02 -3.8046997874852545e-01
    1.1321972757070586e-02 -4.1101242278666622e-01
    1.1188113232862319e-02 -4.2059305028682997e-01
    1.0533984079463597e-02 -4.5723808865334897e-01
    9.5581871745448257e-03 -5.3350559623730998e-01
    9.0770110914013200e-03 -5.8779666749208281e-01
    8.7113564951716953e-03 -6.3705436662441861e-01
    8.4218567888908209e-03 -6.9505088675375426e-01
    8.2692588507428406e-03 -7.3905427977798210e-01
    7.9689535308722272e-03 -8.6312866236457597e-01
    7.9141570220856942e-03 -9.1517595700146204e-01
    7.8918058969478701e-03 -9.8617535696323666e-01
    7.8855643556430249e-03 -1.0432956356483276e+00
    7.8977453017371104e-03 -1.0636450174825072e+00
    7.8883558925023183e-03 -1.0637634439258288e+00
    7.8691210546742076e-03 -1.0205169932473570e+00
    7.8803620319625872e-03 -1.0055869128098971e+00
    7.8879187228143369e-03 -9.4613174124608324e-01
    7.8990947916269868e-03 -9.3018902069289555e-01
    7.8815655367475580e-03 -9.8309575940718330e-01
    7.8760852597018725e-03 -9.7019380582572112e-01
    7.8866613515765696e-03 -9.6520181779900238e-01
    7.8650878614791794e-03 -9.9469321675124633e-01
    7.8723507581478676e-03 -9.8799364013156799e-01
    7.8898396785317161e-03 -9.6714692197807806e-01
    7.9285656038004040e-03 -8.9185846490915599e-01
    8.0964153172972519e-03 -7.9289773396281171e-01
    8.5517422850045939e-03 -6.6821953038053195e-01
    8.6945759928845848e-03 -6.4080128185620766e-01
    9.4047118967927265e-03 -5.4791395919134644e-01
    1.0726942277716377e-02 -4.4184609298939709e-01
    1.1020889233686524e-02 -4.2448855256023971e-01
    1.1434524303769105e-02 -4.1041633426642532e-01
    1.4016351430630705e-02 -3.1555382188521425e-01
    1.4003255677869558e-02 -3.1440297004084061e-01
    1.5190652824897717e-02 -2.9347570336451761e-01
    1.5900559142182722e-02 -2.7463768529894611e-01
    1.6608823718776432e-02 -2.6204394423199862e-01
    1.7225777707262444e-02 -2.5246592540505641e-01
    1.8320386716550861e-02 -2.3047342320348355e-01
    1.8366050758487660e-02 -2.3723345149285271e-01
    1.9246051301105339e-02 -2.1923183696622411e-01
    1.9716652538322107e-02 -2.1394955833971668e-01
    2.0939184290826373e-02 -2.0946429683314549e-01
    2.0295476447707562e-02 -2.0845584517512783e-01
    2.0599356722446744e-02 -2.1067415923637289e-01
    2.1551316337911720e-02 -1.9470756732971453e-01
    2.2625516920208446e-02 -1.8306574532325517e-01
    2.5587500779798135e-02 -1.6482836430815753e-01
    3.1239680059041361e-02 -1.3292177593748972e-01
    3.2360077267881412e-02 -1.2843255580020754e-01
    2.9281306200239589e-02 -1.4488674002194676e-01
    2.5053042553382292e-02 -1.6560436778942783e-01
    2.2693461829356488e-02 -1.8280408006485091e-01
    2.2272996232686658e-02 -1.8537709436570579e-01
    2.3479557833194723e-02 -1.7478323674214388e-01
    2.9252758380530812e-02 -1.4258610947649736e-01
    3.0152980981573131e-02 -1.3761862254219709e-01
    2.9250698008520402e-02 -1.4159766959833925e-01
    3.5092028371438086e-02 -1.2166855511481302e-01
    3.8889822874829803e-02 -1.0832632323265741e-01
    4.1149876747653615e-02 -1.0389513287268023e-01
    3.8904552541024165e-02 -1.0738015482199635e-01
    3.8801681303057778e-02 -1.0606687968655933e-01
    3.5232323482339969e-02 -1.2223625032857974e-01
    3.5160592456253810e-02 -1.1720197485417937e-01
    3.2377022149985481e-02 -1.2752887040622884e-01
    2.9249781491507424e-02 -1.4557417201367306e-01
    2.7636773948280662e-02 -1.4803365422816078e-01
    2.7657592164478363e-02 -1.4913407539669707e-01
    2.7639528475608795e-02 -1.4874975763228448e-01
    2.6867444057181351e-02 -1.5277566228593317e-01
    2.8408531337388701e-02 -1.4371374676561341e-01
    2.8449092161705263e-02 -1.4395175007312686e-01
    2.6853474368298907e-02 -1.5198385089416694e-01
    2.7586007892577431e-02 -1.4731628205609401e-01
    2.6951590224775054e-02 -1.5142006457310184e-01
    2.6835029453395928e-02 -1.5132232871701579e-01
    2.7577080447124376e-02 -1.4838186884179380e-01
    2.6810026688367187e-02 -1.5034642417398070e-01
    2.8419068011094891e-02 -1.4275091255861388e-01
    2.6859575087605225e-02 -1.5034546470605326e-01
    2.7584605157307152e-02 -1.4673610032929710e-01
    2.9226944621575851e-02 -1.3976345144296826e-01
    2.8424454215462074e-02 -1.4261404364159172e-01
    2.8352950516955567e-02 -1.4271312117185017e-01
    2.7564925609284217e-02 -1.4609092638369200e-01
    1.4691412692001067e+00 -3.3212420849275770e-01
    1.4071857200652358e+00 -2.5806520125763843e-01
    1.9978973962352686e+00 -3.6409202837966836e-01
    1.9633281042227715e+00 -2.2192174649807567e-01
    8.1661145439869132e-02 -6.8192236791770763e-02
    4.3928966808712021e-02 -9.4850087503931840e-02
    3.8975510438671909e-02 -1.0901454765141798e-01
    3.5173745230718298e-02 -1.1696183102671379e-01
    3.1211329798570452e-02 -1.3510509888585340e-01
    2.9308890433560816e-02 -1.4394147112583847e-01
    2.9227827072548951e-02 -1.4361077661944466e-01
    2.9291619204487009e-02 -1.4595132060367230e-01
    2.6202390206817326e-02 -1.5990409063929698e-01
    2.3060272995530900e-02 -1.7929561737355687e-01
    2.5052899718910979e-02 -1.6690374714697787e-01
    2.2630930860391564e-02 -1.8266580641409477e-01
    2.2229300260163513e-02 -1.8798757728664231e-01
    2.0575094420040397e-02 -2.0387616627747066e-01
    2.0253270889080528e-02 -2.0636377743268441e-01
    1.9986584828317472e-02 -2.0887940614692574e-01
    1.9713250308080466e-02 -2.1238924005510915e-01
    1.8979544424125361e-02 -2.2020211921831259e-01
    1.8356018817097499e-02 -2.3043472757242120e-01
    1.7534340558341067e-02 -2.3953486686619563e-01
    1.8558159657618457e-02 -2.2702173163633374e-01
    1.9460227038606934e-02 -2.1487053453354577e-01
    1.9449125801532505e-02 -2.1625094893514804e-01
    1.8548307719417647e-02 -2.2685842567093970e-01
    1.8326616834271760e-02 -2.3025586756138672e-01
    1.7570118363006509e-02 -2.4030733973302329e-01
    1.7377451480160309e-02 -2.4354488227846358e-01
    1.6300293512008054e-02 -2.6091750099151995e-01
    1.5884405370591718e-02 -2.7256320495766206e-01
    1.5648383568537080e-02 -2.7569672319423749e-01
    1.3682720270698971e-02 -3.2199370436340380e-01
    1.3467470422566437e-02 -3.2823658304411923e-01
    1.2670100689933940e-02 -3.5523045855930130e-01
    1.2112819327727628e-02 -3.7401647776539371e-01
    1.2558016579990136e-02 -3.5980817746659166e-01
    1.1615870073862465e-02 -3.9664109981164741e-01
    1.1280648056319013e-02 -4.1259588294571187e-01
    1.0844603508429879e-02 -4.4036344996284005e-01
    1.0078936489109742e-02 -4.8669521920769143e-01
    9.4148468844498356e-03 -5.4504036311915360e-01
    9.0316465328755188e-03 -5.9273435723254553e-01
    8.9545785483341606e-03 -6.0181584478994599e-01
    8.6341343934999808e-03 -6.5550706826222516e-01
    8.3928059843393354e-03 -7.0269179515939140e-01
    8.1811164133244168e-03 -7.6149491874888164e-01
    8.0073486063091219e-03 -8.4311747049752417e-01
    7.8734391546102008e-03 -1.0101431729226196e+00
    7.8851399212578367e-03 -1.0289334544308022e+00
    7.8897194102187096e-03 -1.0551930959768288e+00
    7.9006406804603985e-03 -1.0818865791776013e+00
    7.9106872349070777e-03 -1.0885999807491680e+00
    7.9320358974193893e-03 -1.1271541945027261e+00
    8.0307028116646789e-03 -1.2250665780483951e+00
    8.0077090230237947e-03 -1.2023293396657075e+00
    7.9498989378429114e-03 -1.1541749470636251e+00
    8.0040931182886691e-03 -1.2017218007008488e+00
    8.0900067916143577e-03 -1.2695525421530274e+00
    8.0309211635459371e-03 -1.2276657062649645e+00
    8.0336821313322614e-03 -1.2228987692787849e+00
    8.1334255357214807e-03 -1.2981585070739774e+00
    8.1587970019921345e-03 -1.3109878739775436e+00
    8.2057380244771484e-03 -1.3378097690424970e+00
    8.1668958489950257e-03 -1.3126848570204173e+00
    7.9890350565164463e-03 -1.1877032117354449e+00
    7.9398069477116286e-03 -1.1384785699257371e+00
    7.8920382531492920e-03 -1.0716878196747701e+00
    7.8820287351144026e-03 -9.8993553514026222e-01
    7.9363785254986056e-03 -8.8316239923887607e-01
    8.1067260930945632e-03 -7.8982139917381522e-01
    8.4061834798724224e-03 -7.0401544251097625e-01
    8.5366181083421262e-03 -6.7389067655265489e-01
    9.0987160405844418e-03 -5.8366112031504536e-01
    1.1356631605349507e-02 -4.0887803409571494e-01
    1.2175865884668891e-02 -3.7325278371710474e-01
    1.2880520380864138e-02 -3.5122074085814198e-01
    1.2971577915054076e-02 -3.4595362875408925e-01
    1.3249620987816721e-02 -3.3426638969609590e-01
    1.3620487567840201e-02 -3.2596481723773513e-01
    1.3595676632894522e-02 -3.2292476228511752e-01
    1.3843908195402427e-02 -3.1611055426110940e-01
    1.4941264453390371e-02 -2.9031204265491833e-01
    1.6174727871852382e-02 -2.6633265870653355e-01
    1.6900325688392746e-02 -2.5348539244735785e-01
    1.8567108368132263e-02 -2.3085747198208281e-01
    1.8327656831768274e-02 -2.2777451252860800e-01
    1.8974834525649385e-02 -2.2003804650620407e-01
    1.8543956096950993e-02 -2.2556466089786065e-01
    1.9481584327233330e-02 -2.1508388140747112e-01
    2.1889223827729169e-02 -1.8935314729869523e-01
    2.6864693859104134e-02 -1.5517691677784717e-01
    2.9175725038197736e-02 -1.4268174643824499e-01
    3.6820446273132773e-02 -1.1623709509753678e-01
    3.2433436146312195e-02 -1.2644176952080186e-01
    2.6819537339702122e-02 -1.5336939576729311e-01
    2.4531416063851199e-02 -1.6849432832783609e-01
    2.2276799028101556e-02 -1.8581985071652876e-01
    2.1521918053671093e-02 -1.9225750325914950e-01
    2.2251250626747175e-02 -1.8635101591789072e-01
    2.4538332393738402e-02 -1.6823050490009350e-01
    4.1107808167145633e-02 -1.0303029659424159e-01
    4.3884042675428191e-02 -9.7385118924479624e-02
    3.5172706812179468e-02 -1.1712065117273601e-01
    3.8819565198942821e-02 -1.0616054104578250e-01
    3.6793889261711572e-02 -1.1207919439467158e-01
    3.2364697268595290e-02 -1.2650975668197167e-01
    3.1160763817126003e-02 -1.3255005416096965e-01
    2.9225961889535749e-02 -1.4043293798362852e-01
    2.8345564439285462e-02 -1.4424524833463376e-01
    2.8409443897822781e-02 -1.4398050344525179e-01
    2.7571451863125377e-02 -1.4828798158910453e-01
    2.9226657231112160e-02 -1.3817770241099048e-01
    2.6861670384834353e-02 -1.5271184928125550e-01
    2.7642661253882966e-02 -1.4790577342187206e-01
    2.6914814757878911e-02 -1.5192745493086435e-01
    2.6868586248455478e-02 -1.5144957439008294e-01
    2.6896971113029331e-02 -1.5154752466799110e-01
    2.6832964312314418e-02 -1.5066075002577461e-01
    2.9218147667630326e-02 -1.3773306749435424e-01
    2.6848699418058140e-02 -1.5031555591148121e-01
    2.8370726035400719e-02 -1.4195179877920222e-01
    3.0179118172064805e-02 -1.3317797707764700e-01
    2.8339824216015018e-02 -1.4248361448397864e-01
    2.7547946435330779e-02 -1.4641399904729438e-01
    2.7559376111685793e-02 -1.4618866290385579e-01
    3.3636872926422451e-02 -1.2333520073021564e-01
    3.3642208429404512e-02 -1.2219067398407707e-01
    3.1227756251024242e-02 -1.3168244158448053e-01
    3.3619008925289053e-02 -1.3055963443073615e-01
    3.8827423922143257e-02 -1.1106345020405453e-01
    3.6806755996500642e-02 -1.1776463798649686e-01
    3.1276538654361086e-02 -1.3614493296604235e-01
    2.5564480145034277e-02 -1.6423777901711756e-01
    2.3035745492590680e-02 -1.7921119186565646e-01
    2.0915067128087727e-02 -2.0024910291840395e-01
    2.0004973655516553e-02 -2.0900236605728828e-01
    1.8734069723214421e-02 -2.2197819869271251e-01
    1.7565180392075802e-02 -2.4117175015832798e-01
    1.7755999498013795e-02 -2.3668522052888746e-01
    1.8136162181525858e-02 -2.3340634097054846e-01
    1.7749859021059165e-02 -2.3666478694745555e-01
    1.6572550467763018e-02 -2.5516375570261651e-01
    1.6749725124999369e-02 -2.5205728224436763e-01
    1.8116623553090013e-02 -2.3152501611100038e-01
    1.7741952444910256e-02 -2.3850340916427801e-01
    1.7358019652567492e-02 -2.4141061242290521e-01
    1.7026614677661235e-02 -2.4711175604268895e-01
    1.6004429736537963e-02 -2.6522681251969721e-01
    1.5491395247750830e-02 -2.7473551710428695e-01
    1.5379559551200784e-02 -2.7708041544377887e-01
    1.4344858736163502e-02 -3.0216857566153871e-01
    1.2527711341007577e-02 -3.5457613448325825e-01
    1.2107601517517760e-02 -3.7135563962379736e-01
    1.1912637925350010e-02 -3.7875868171879862e-01
    1.2101051473245923e-02 -3.7144784643309547e-01
    1.2064199979925595e-02 -3.7337794470743191e-01
    1.1961801460003410e-02 -3.7706578304716631e-01
    1.1738390282576408e-02 -3.8916757818036479e-01
    1.1881189243623306e-02 -3.8463808499425484e-01
    1.1782622708187356e-02 -3.8881295926325293e-01
    1.2505880522841246e-02 -3.6254071633343932e-01
    1.2426275226920658e-02 -3.6076329150728936e-01
    1.1880129881422043e-02 -3.8493265124441522e-01
    1.1444949022218282e-02 -4.0446740258450770e-01
    1.1359396559480697e-02 -4.0661922978487131e-01
    1.0462150140421537e-02 -4.5959851487685710e-01
    9.7396998690667206e-03 -5.1622656064962291e-01
    9.1948724718378602e-03 -5.7135473996285224e-01
    9.0119154363956979e-03 -5.9408999627127579e-01
    8.4804813690372727e-03 -6.7999375351107516e-01
    8.1443178396647734e-03 -7.7892368542676238e-01
    8.0110402783555336e-03 -8.4540960815241006e-01
    7.9049714902780129e-03 -9.2250196706268606e-01
    7.8813983274636373e-03 -9.5731263882952211e-01
    7.8824167561875307e-03 -1.0266597805948334e+00
    8.0505758630479412e-03 -1.2363901699152935e+00
    8.2316624174707982e-03 -1.3544645084359477e+00
    8.2238174867478638e-03 -1.3424172662191367e+00
    8.3874658956315309e-03 -1.4334343675749888e+00
    8.6643719434074448e-03 -1.5583177742230139e+00
    8.8395150563729541e-03 -1.6380630755849603e+00
    8.9126419354317882e-03 -1.6675892296699069e+00
    8.9185189536194216e-03 -1.6683905295127266e+00
    8.9688120532219525e-03 -1.6888986877106986e+00
    8.8636933614957506e-03 -1.6487287524895269e+00
    8.9292856570458469e-03 -1.6735973694001733e+00
    8.6704064573728430e-03 -1.5657734014196840e+00
    8.8649132582778942e-03 -1.6459700190208291e+00
    8.6649895190558622e-03 -1.5659045246080641e+00
    8.7521161604869595e-03 -1.6011426164327076e+00
    8.8007386334379052e-03 -1.6199145038260530e+00
    8.4936078443977638e-03 -1.4866948623324929e+00
    8.3845499542984682e-03 -1.4329650397672151e+00
    8.4374495792159145e-03 -1.4601069753375544e+00
    8.4372497740057440e-03 -1.4598291102636698e+00
    8.0740498366571930e-03 -1.2524834886753584e+00
    7.8964277592603067e-03 -1.0813825383073759e+00
    7.9006176191213917e-03 -1.0914972062292287e+00
    7.8828052822444792e-03 -1.0162090698860244e+00
    7.9890223886241261e-03 -8.5110271386997394e-01
    8.0743566076271530e-03 -8.0747291269631449e-01
    8.2410783133527402e-03 -7.4778042781021925e-01
    8.6132061191230378e-03 -6.5568652487686230e-01
    9.1075096122616508e-03 -5.8192469433732252e-01
    1.0380100320928270e-02 -4.6431493730823548e-01
    1.0654152974372095e-02 -4.4344378804289664e-01
    1.0868282543449632e-02 -4.3411706200946276e-01
    1.1059172832571327e-02 -4.2299103840933999e-01
    1.1435230805811734e-02 -4.0254122744333809e-01
    1.1649250825487054e-02 -3.9409939557365720e-01
    1.2210300963985225e-02 -3.6992846069319485e-01
    1.2212908570171840e-02 -3.6862699466300680e-01
    1.2729267193237795e-02 -3.5177997918105830e-01
    1.3232226633393693e-02 -3.3133983876698625e-01
    1.3384036437389541e-02 -3.2808642030431368e-01
    1.3587355270944443e-02 -3.2076815188661001e-01
    1.4241647794092531e-02 -3.0291837020860479e-01
    1.4352596695915192e-02 -3.0080857504207031e-01
    1.4529476580296050e-02 -2.9528186544961521e-01
    1.4640803898823362e-02 -2.9322135974529279e-01
    1.6127549893815724e-02 -2.6207733616374823e-01
    1.7370163025628868e-02 -2.4196016016207594e-01
    1.8557760281297447e-02 -2.2556133546056803e-01
    1.8988272275900456e-02 -2.2008436920475624e-01
    1.9453424870586208e-02 -2.1425692513175051e-01
    2.2258056950568275e-02 -1.8653638039541992e-01
    2.0295062088062216e-02 -2.0428489831893767e-01
    2.1168726792398156e-02 -1.9510876101274932e-01
    2.0552385946461100e-02 -2.0151768504136772e-01
    2.0882133066544874e-02 -1.9812736632687214e-01
    2.2699080588268056e-02 -1.8154028235184624e-01
    2.2274870943457450e-02 -1.8600930291883730e-01
    2.7602748169527552e-02 -1.5062122444063997e-01
    3.1228754394087326e-02 -1.3215490181304085e-01
    3.3695951448857800e-02 -1.2168630217574829e-01
    3.3687622136833288e-02 -1.2340471500182529e-01
    3.6912323292061518e-02 -1.1286570824366214e-01
    2.9216362933533187e-02 -1.3951066037465676e-01
    2.9195476193353938e-02 -1.3978133988305905e-01
    2.7598599555761012e-02 -1.4744718932212802e-01
    2.6901968480266738e-02 -1.5148259529488145e-01
    2.6839728615987060e-02 -1.5354677501187522e-01
    2.6829519667331447e-02 -1.5122936864388556e-01
    2.7697687273344505e-02 -1.4800851803622272e-01
    2.6857716747003445e-02 -1.5135732874954883e-01
    2.6870724126519058e-02 -1.5025290722648721e-01
    2.6837823782163744e-02 -1.5040944147351051e-01
    2.6916299881472216e-02 -1.5066297961336178e-01
    2.8306937682022075e-02 -1.4244886863513531e-01
    3.1160243775951373e-02 -1.2949291617618547e-01
    2.7632086447163820e-02 -1.4644687107810581e-01
    2.7586064110329506e-02 -1.4725294660046709e-01
    2.7601844827845719e-02 -1.4641393813525083e-01
    2.6870256113180568e-02 -1.5706857898685017e-01
    2.6910187528116455e-02 -1.5410505314544198e-01
    2.9246026665648538e-02 -1.4474590590807135e-01
    2.3087456676694089e-02 -1.7916079414163533e-01
    2.1846906035957930e-02 -1.8732399016298876e-01
    2.0308058069286088e-02 -2.0727336315468581e-01
    1.8768762730266612e-02 -2.2414275583527163e-01
    1.6715201093606160e-02 -2.5134495577548271e-01
    1.5503254293091543e-02 -2.7440938913700441e-01
    1.6593848652050734e-02 -2.5589360608756440e-01
    1.6582044586885964e-02 -2.5469790976189205e-01
    1.6283320620416045e-02 -2.6259906449210740e-01
    1.6716450256682155e-02 -2.5244346391088751e-01
    1.8334582276010009e-02 -2.2929858779558998e-01
    1.8539273517797255e-02 -2.2736804534571883e-01
    1.6408065977911515e-02 -2.5745712752423094e-01
    1.4828768996525792e-02 -2.8968265339579852e-01
    1.4361639288143747e-02 -3.0114717676868896e-01
    1.4002420988770701e-02 -3.1018511823567479e-01
    1.3517664528926701e-02 -3.2235030465462461e-01
    1.1286919418451702e-02 -4.0750075159904858e-01
    1.0915447678114835e-02 -4.2639490422421367e-01
    1.0755168390265876e-02 -4.3660773548304244e-01
    1.0700794231820515e-02 -4.3995445350343032e-01
    1.0565777498809542e-02 -4.4757705905280054e-01
    1.0567161584507788e-02 -4.4780632500161549e-01
    1.0533820893364325e-02 -4.4988041527046618e-01
    1.0537589897691576e-02 -4.4944583255678977e-01
    1.1117300709505153e-02 -4.1594348375424234e-01
    1.1192760750042647e-02 -4.1284117188652114e-01
    1.1427647390699461e-02 -4.0135162981176309e-01
    1.1583880381985316e-02 -3.9243568002269053e-01
    1.1681315163019309e-02 -3.9232781572313646e-01
    1.1613500457003535e-02 -3.9709598736778523e-01
    1.1157526555165208e-02 -4.1639322862621164e-01
    1.0883029017593065e-02 -4.3146753912540531e-01
    1.0631743689271434e-02 -4.4683980195312784e-01
    1.0052982926214451e-02 -4.8875817336308136e-01
    9.5410731151327199e-03 -5.3272642264182213e-01
    9.0425929897202245e-03 -5.8652740411753923e-01
    8.7855400220823842e-03 -6.2533386424766546e-01
    8.4968749121961656e-03 -6.8125924180669462e-01
    8.0372534406862074e-03 -8.2551955726245385e-01
    7.9082082130904965e-03 -9.1809098185951299e-01
    7.8887953039007575e-03 -1.0024138420301483e+00
    7.8932679005748567e-03 -1.0625503920922630e+00
    8.0366632936804180e-03 -1.2252435457424196e+00
    8.2064660914605587e-03 -1.3384206669719791e+00
    8.7877880795538561e-03 -1.6156657527900395e+00
    8.8507946083012171e-03 -1.6391630780458015e+00
    9.0554403230170347e-03 -1.7196040948348876e+00
    9.1253628864275300e-03 -1.7499225299855146e+00
    9.2201246373506737e-03 -1.7836102468879096e+00
    9.3476921044852983e-03 -1.8294738028344675e+00
    9.5613514524510151e-03 -1.9047491351377561e+00
    9.6565706271403949e-03 -1.9377963908317650e+00
    9.9049332134958715e-03 -2.0272096643621551e+00
    1.0151171144339576e-02 -2.1072871207951338e+00
    1.0375537074553473e-02 -2.1816391692794088e+00
    1.0426577476623686e-02 -2.1974342748109690e+00
    9.7865213063464251e-03 -1.9856817867181373e+00
    9.9597156762307147e-03 -2.0434533602660028e+00
    9.8509085624813794e-03 -2.0074492789148906e+00
    9.7470584019679826e-03 -1.9721098475372796e+00
    9.7770212387511927e-03 -1.9840474241590367e+00
    9.3628975650859123e-03 -1.8358730668537142e+00
    8.9384358868798402e-03 -1.6768278912264654e+00
    9.2293234428770052e-03 -1.7891048816579616e+00
    9.2862128714212427e-03 -1.8063986844334567e+00
    9.0751458962902119e-03 -1.7293648262992893e+00
    8.6079332481513796e-03 -1.5370671116638477e+00
    8.2199961296171558e-03 -1.3480793652572136e+00
    7.9957549100632668e-03 -1.1956835292325405e+00
    7.9416678974254633e-03 -1.1334234839950803e+00
    7.9001259904439552e-03 -1.0520744485082572e+00
    7.9224479845308414e-03 -9.0387181642197545e-01
    8.0839202451544242e-03 -7.9984190356410834e-01
    8.2240938650827121e-03 -7.5091573545737345e-01
    8.6620811944394128e-03 -6.4610933200045773e-01
    9.0695901199124521e-03 -5.8375940836400753e-01
    9.7650844081528243e-03 -5.1036363297189036e-01
    1.1176629875118476e-02 -4.1674520254074982e-01
    1.1167581013740135e-02 -4.1712911597342622e-01
    1.1722638339790701e-02 -3.8765832046152154e-01
    1.2229506260941153e-02 -3.7036925708596524e-01
    1.2778629088924583e-02 -3.4767598797997923e-01
    1.3370169676893509e-02 -3.2840961180983180e-01
    1.4939306089334746e-02 -2.8905058782997733e-01
    1.5264161697650448e-02 -2.7906831265219983e-01
    1.5064869351337180e-02 -2.8477294555832183e-01
    1.5168154701880401e-02 -2.8166930876617580e-01
    1.5868938750161803e-02 -2.6669700868351515e-01
    1.5618897100121725e-02 -2.7279926042346397e-01
    1.5524052750122887e-02 -2.7508191741653742e-01
    1.4357159594382636e-02 -3.0123539813311945e-01
    1.3916101308443731e-02 -3.1138681128466944e-01
    1.3359451116515070e-02 -3.2622023020500640e-01
    1.3615364379546571e-02 -3.2062848274187122e-01
    1.3910681198227274e-02 -3.1150620007333624e-01
    1.3812266607200516e-02 -3.1318956082001725e-01
    1.4446866946717303e-02 -2.9848526830051564e-01
    1.5291012420715160e-02 -2.7985903701488835e-01
    1.7423935082706607e-02 -2.4208618455165373e-01
    1.7046850236892414e-02 -2.4709084997350284e-01
    1.8321271162027954e-02 -2.2695553896214560e-01
    1.9473994815572174e-02 -2.1502255175256335e-01
    1.9468687015755531e-02 -2.1327980308609693e-01
    1.9504290813458062e-02 -2.1276999136526684e-01
    2.3065207039797885e-02 -1.7869549675469709e-01
    3.1174504383840316e-02 -1.3145788699806252e-01
    2.9277919096563219e-02 -1.4118913465136196e-01
    2.3090836951100070e-02 -1.7806843812578438e-01
    2.5028382264439101e-02 -1.6359382040666248e-01
    2.4484653350771900e-02 -1.6718471492107226e-01
    2.5591976495520950e-02 -1.6208251780496602e-01
    3.1196962068020494e-02 -1.3036515982980190e-01
    2.9186751639821110e-02 -1.3936926388565099e-01
    2.7570242123880095e-02 -1.4780448142075511e-01
    2.7623612519659446e-02 -1.4774012832025474e-01
    2.6916538138391097e-02 -1.5246495824410461e-01
    2.6858703426897886e-02 -1.4999981775437088e-01
    2.6878717034709971e-02 -1.5116565658736542e-01
    2.6860276885761505e-02 -1.5047331584099610e-01
    2.8338203658046245e-02 -1.4211592791832189e-01
    3.1231115606017622e-02 -1.2978743890251615e-01
    2.8390302533407449e-02 -1.4195151266703726e-01
    2.8417142790623337e-02 -1.4211849035771948e-01
    2.7609835857800781e-02 -1.4709323163458110e-01
    2.2631850486554330e-02 -1.8100259662487628e-01
    2.0586688170930754e-02 -2.0287504467408576e-01
    1.9983014427049993e-02 -2.0785100819277605e-01
    1.7209607542795522e-02 -2.4680998868179874e-01
    1.8987839428742700e-02 -2.2012315351590875e-01
    1.8308383886011064e-02 -2.2715488519241178e-01
    1.7059845140564026e-02 -2.4845982074959858e-01
    1.7560028221475097e-02 -2.4122253300780672e-01
    1.8990937662224400e-02 -2.2022478345559876e-01
    1.7561129731925463e-02 -2.3996159623312682e-01
    1.5508421120035299e-02 -2.7496591632893036e-01
    1.3822530063310941e-02 -3.1369331202503586e-01
    1.3299883668259224e-02 -3.2978189054237228e-01
    1.2481572673696144e-02 -3.5681174015866080e-01
    1.1783148693580764e-02 -3.8608499202680774e-01
    1.0146907882314538e-02 -4.7660038026700680e-01
    1.0191902692332435e-02 -4.7302418966178189e-01
    1.0352390631937434e-02 -4.6227543635000895e-01
    1.0174135951800537e-02 -4.7494556444893093e-01
    1.0233457952267586e-02 -4.6945250650004461e-01
    9.9009619887903428e-03 -4.9475118477780022e-01
    9.7891261177395997e-03 -5.0375046236340248e-01
    1.0383917235621260e-02 -4.6072494604368935e-01
    1.0363194945513578e-02 -4.6029558726272474e-01
    1.0231052533499638e-02 -4.7022719879457159e-01
    1.0461985347984006e-02 -4.5585054266527314e-01
    1.0212050916375443e-02 -4.7222784929564504e-01
    1.0292060739871807e-02 -4.6668025820828180e-01
    1.0368680689938811e-02 -4.6089802204100561e-01
    1.0338560388828908e-02 -4.6269529435679269e-01
    1.0481475998858377e-02 -4.5336312737391921e-01
    1.0366425219530113e-02 -4.6106081071545640e-01
    1.0268761218460310e-02 -4.6998236898468693e-01
    9.9705060015858726e-03 -4.9720279928323552e-01
    9.8132359566118401e-03 -5.0817168943944835e-01
    9.4833888992328728e-03 -5.3863898841271463e-01
    9.1902818541656842e-03 -5.6961727335328871e-01
    8.7839277570382138e-03 -6.2264573029330739e-01
    8.5808433967611061e-03 -6.6274396352631371e-01
    8.1617351707516401e-03 -7.6785265590853402e-01
    7.9386497617057253e-03 -8.8696784903911208e-01
    7.8956509029906516e-03 -9.6313280720806038e-01
    7.8919718934619930e-03 -1.0600365569564278e+00
    7.9473387246966516e-03 -1.1330503403486778e+00
    8.0974599332626056e-03 -1.2672011115860096e+00
    8.2448776702700507e-03 -1.3574663297812786e+00
    8.5502999310811401e-03 -1.5087975629249892e+00
    9.2387685560418355e-03 -1.7882505005775278e+00
    9.3441419392419761e-03 -1.8301477356916023e+00
    9.5661719474251783e-03 -1.9053563655283328e+00
    9.5143649489957422e-03 -1.8904066477206487e+00
    9.6352502024743894e-03 -1.9309952698165369e+00
    9.8306665402915303e-03 -1.9989588901046083e+00
    1.0248837153774008e-02 -2.1388271067830984e+00
    1.0796433012880836e-02 -2.3103868542235677e+00
    1.0889118250397080e-02 -2.3420898295453254e+00
    1.0755588144389611e-02 -2.3015718076727980e+00
    1.0731494561765692e-02 -2.2920838523167792e+00
    1.0387573560249391e-02 -2.1833433594059137e+00
    1.0798227716375973e-02 -2.3128383932307015e+00
    1.0761760365291882e-02 -2.3021602458942563e+00
    1.0787437356170198e-02 -2.3116346008829352e+00
    1.0556683436530928e-02 -2.2364705231507398e+00
    1.0570343326071116e-02 -2.2434974596197259e+00
    1.0663309366228039e-02 -2.2723549156696192e+00
    1.0410739922311641e-02 -2.1888970939310139e+00
    9.7902725004676908e-03 -1.9850200949391170e+00
    1.0278040641975411e-02 -2.1456328580780824e+00
    1.0009244620283053e-02 -2.0589027728610381e+00
    9.5984360257572923e-03 -1.9180597886626622e+00
    9.3316080455260342e-03 -1.8198250153835545e+00
    9.0449741680676769e-03 -1.7176061672787339e+00
    8.6812773434921924e-03 -1.5697091180014309e+00
    8.3692230123564859e-03 -1.4175938595808528e+00
    8.1758006690635064e-03 -1.3225654205730404e+00
    8.0199379075906532e-03 -1.2071347832350232e+00
    7.9192888856706375e-03 -1.1085908344591395e+00
    7.9120896942665893e-03 -9.1732786166975500e-01
    8.0456856953543109e-03 -8.3089568639554667e-01
    8.2616424797434494e-03 -7.3769701754535044e-01
    8.5013234757062624e-03 -6.7660533309591608e-01
    9.0999084618537222e-03 -5.8168042324790459e-01
    9.5602484531744653e-03 -5.2637603248066467e-01
    1.0733482827051683e-02 -4.4163267922654520e-01
    1.1248650589628430e-02 -4.1369604694451223e-01
    1.1396113340910341e-02 -4.0458174006138448e-01
    1.1843987834206387e-02 -3.8840630000248666e-01
    1.2532448313934446e-02 -3.5564977891123772e-01
    1.3745472470837992e-02 -3.1644709402298310e-01
    1.5720366705144428e-02 -2.7094514380043044e-01
    1.9203485548885131e-02 -2.1679782762686003e-01
    1.9743425991677662e-02 -2.1141634014617694e-01
    1.8533182216936124e-02 -2.2671618292136622e-01
    1.8329393615640375e-02 -2.2832462635399775e-01
    1.8534769343902052e-02 -2.2605150062562893e-01
    1.7723449352245808e-02 -2.3710990661672332e-01
    1.6860716223788687e-02 -2.4923522390320163e-01
    1.7044770922693093e-02 -2.4727696501226495e-01
    1.7736383217151236e-02 -2.3609642296325539e-01
    1.8740069429617229e-02 -2.2215736285767690e-01
    1.8163771802903201e-02 -2.3040964508457831e-01
    1.6006203194888692e-02 -2.6449927701634401e-01
    1.4735325531860547e-02 -2.9146032012211825e-01
    1.3741062435603272e-02 -3.1547387287276024e-01
    1.3661360438059369e-02 -3.1802449564169810e-01
    1.3656012314466651e-02 -3.1988460679873498e-01
    1.3433223888854333e-02 -3.2360589866506528e-01
    1.3288658745618751e-02 -3.2862991022469623e-01
    1.5498055713460961e-02 -2.7438887566508158e-01
    1.5745921335172670e-02 -2.6889747553467885e-01
    1.7225194011968415e-02 -2.4443086727710198e-01
    1.7021026671925534e-02 -2.4595089059502084e-01
    2.6203352697505629e-02 -1.5637387180725965e-01
    3.2362631976927056e-02 -1.2605375800009536e-01
    2.9270981827760525e-02 -1.3879239480267996e-01
    2.6844043459223716e-02 -1.5239490415951457e-01
    2.4030007725533840e-02 -1.7153600670510835e-01
    2.6870132874337985e-02 -1.5210912589071607e-01
    3.5073216559389254e-02 -1.1723435016044990e-01
    3.1170506761705866e-02 -1.2996699186109192e-01
    2.7536850523072570e-02 -1.4660911420357900e-01
    2.7600734523676160e-02 -1.4605786619910752e-01
    2.6859286732901468e-02 -1.5037483022088088e-01
    3.0163976741256624e-02 -1.3352865367121444e-01
    2.9292146176356493e-02 -1.3858867775710995e-01
    2.9232201945171087e-02 -1.3766445275909289e-01
    2.8307751705175157e-02 -1.4294271852970800e-01
    2.8370515329158821e-02 -1.4195074451890538e-01
    2.1187925173770637e-02 -1.9509020376264244e-01
    1.9238114684229948e-02 -2.1982929893502434e-01
    1.6858553776625405e-02 -2.4904770100463458e-01
    1.7022087297824780e-02 -2.4551465012606560e-01
    1.8558102799059003e-02 -2.3295021079833811e-01
    1.7192860419832583e-02 -2.4440830988977691e-01
    1.4849359631776879e-02 -2.8813238418152531e-01
    1.2526068039059085e-02 -3.5359052962852605e-01
    1.1853205060255941e-02 -3.8065604209077991e-01
    1.1418856735578601e-02 -4.0255750417873115e-01
    1.0009351843362482e-02 -4.8557478492713496e-01
    9.8097058667955331e-03 -5.0147171132900215e-01
    9.8222474934814997e-03 -5.0203353567028741e-01
    9.6944927275939893e-03 -5.1257813278620079e-01
    9.8469297671350577e-03 -5.0206848591230957e-01
    9.5793113643634197e-03 -5.2317182516029093e-01
    9.5232352394613185e-03 -5.2884161919158557e-01
    9.5088868208379074e-03 -5.3067704465174503e-01
    1.0282992238265192e-02 -4.6588952492652252e-01
    1.0265536807248572e-02 -4.6796402679686894e-01
    1.0165858496806957e-02 -4.7508679881617566e-01
    1.0291649843492645e-02 -4.6575947509702531e-01
    1.0132869196650914e-02 -4.7729670717650130e-01
    1.0056982531630086e-02 -4.8157518660110110e-01
    9.9367568623268919e-03 -4.9139382984113666e-01
    1.0014814048920944e-02 -4.8756088372653300e-01
    9.8804813091833647e-03 -4.9726057836782811e-01
    9.9371064571257134e-03 -4.9143404101750776e-01
    9.8846483463270740e-03 -4.9927164980663807e-01
    9.8397530434816503e-03 -5.0107835827307767e-01
    9.8367723243780302e-03 -5.0116482942609730e-01
    9.4664177202783729e-03 -5.3472703740820426e-01
    9.2258397181699172e-03 -5.6395738567885734e-01
    9.1651503644045573e-03 -5.7379972523630840e-01
    8.8309778627874216e-03 -6.1685449867159059e-01
    8.5583982502660024e-03 -6.6487007583439028e-01
    8.2055286817215318e-03 -7.5749238650397488e-01
    7.9508522934581393e-03 -8.6453367734853426e-01
    7.8888709834644168e-03 -9.5276997641239047e-01
    7.8828002288222482e-03 -1.0695150594196294e+00
    7.9722546315408264e-03 -1.1737604745808015e+00
    8.0479824596628655e-03 -1.2341910632893369e+00
    8.3028153729016417e-03 -1.3897687143732467e+00
    8.3581766313914514e-03 -1.4151443834238486e+00
    8.6327014939867001e-03 -1.5461496956063863e+00
    9.3759541121685684e-03 -1.8406609245327283e+00
    9.7140985405190870e-03 -1.9576653604292935e+00
    1.0136847911032939e-02 -2.1040331482419314e+00
    1.0299562933102255e-02 -2.1558874066164524e+00
    1.0199670181174283e-02 -2.1218255058209627e+00
    1.0783793329626251e-02 -2.3107417817508247e+00
    1.0890609453738721e-02 -2.3424984943367004e+00
    1.1145832350920648e-02 -2.4196997819176880e+00
    1.1127930954987238e-02 -2.4153642614708515e+00
    1.0861042726438780e-02 -2.3314913114546179e+00
    1.1424645822450764e-02 -2.5095084479411662e+00
    1.1348246275950503e-02 -2.4863523294053675e+00
    1.0731957054303840e-02 -2.2925911164759727e+00
    1.1348303654557102e-02 -2.4844146156407381e+00
    1.1476009256049869e-02 -2.5228556957253163e+00
    1.1285596526198637e-02 -2.4652975581157306e+00
    1.1234994634429783e-02 -2.4501488817694117e+00
    1.1282492024542260e-02 -2.4644762452039934e+00
    1.1350039531578537e-02 -2.4857895690596625e+00
    1.1353779540752262e-02 -2.4856788952586717e+00
    1.1275639158004638e-02 -2.4619129095850956e+00
    1.1012113615375307e-02 -2.3817918908678295e+00
    1.0673464746237440e-02 -2.2728816940877596e+00
    1.0731846145156567e-02 -2.2929387679065143e+00
    1.0486892471691409e-02 -2.2149840946869044e+00
    9.9385478434801545e-03 -2.0367603717205425e+00
    9.8414491467145801e-03 -2.0051924258549909e+00
    9.4783213248033054e-03 -1.8763577880753062e+00
    8.8092751826071986e-03 -1.6211911315294973e+00
    8.5273228677236225e-03 -1.5016546722010464e+00
    8.3399495376604901e-03 -1.4065368182199733e+00
    8.2906622973836584e-03 -1.3781337481391414e+00
    8.1261997074360826e-03 -1.2888696357196661e+00
    7.9104857466834252e-03 -1.0899864697137125e+00
    7.8916680171668245e-03 -9.3318291632753991e-01
    8.0047697330439607e-03 -8.2801818220136281e-01
    8.1430520499113385e-03 -7.7666119966697633e-01
    8.2885904472347373e-03 -7.2104044834064407e-01
    8.8811287648845032e-03 -6.1407832433367493e-01
    9.1841056544262646e-03 -5.6687223759050420e-01
    1.0377524649346308e-02 -4.6246415210702801e-01
    1.0643002599515646e-02 -4.4817229746910808e-01
    1.0720734550066375e-02 -4.3945119397325133e-01
    1.1149649673809476e-02 -4.1316717960801713e-01
    1.2177108699207519e-02 -3.6876835756215987e-01
    1.3372694406441022e-02 -3.2689836822388818e-01
    1.5875414774386656e-02 -2.6896651398035248e-01
    1.6539902570064109e-02 -2.5513801265517577e-01
    1.5989622400784727e-02 -2.6603264490348294e-01
    1.6168226119985710e-02 -2.6316725144779507e-01
    1.5617831966574607e-02 -2.7222223377032928e-01
    1.7198318152211234e-02 -2.4355357586257154e-01
    1.7233738028146126e-02 -2.4492978083369846e-01
    1.8315044294077099e-02 -2.2763888963434234e-01
    1.8981925569494806e-02 -2.2060194006716224e-01
    1.9696606991859489e-02 -2.1077868474102920e-01
    2.0861169150262454e-02 -1.9802470831217991e-01
    1.9230975897733756e-02 -2.1739653376434664e-01
    1.7558662846914486e-02 -2.3842922456369578e-01
    1.7536555410194898e-02 -2.3772449335181156e-01
    1.7396729994041196e-02 -2.4168813469230244e-01
    1.6558049971960757e-02 -2.5507418157498024e-01
    1.3920281627608807e-02 -3.1144823876857625e-01
    1.4201032582471301e-02 -3.0415106577152201e-01
    1.3976440527071853e-02 -3.0865848531931345e-01
    1.3465416062027932e-02 -3.2466096581387766e-01
    1.3668170811020109e-02 -3.1747361452401723e-01
    1.5539011118655055e-02 -2.7308871097456405e-01
    1.8957059241942253e-02 -2.1893544889223504e-01
    2.2681967999016776e-02 -1.8135109823435328e-01
    2.3945054468511189e-02 -1.7095719395626791e-01
    2.0236130243053343e-02 -2.0352832262909476e-01
    2.7660390732357078e-02 -1.4758589103562150e-01
    3.2348493113162229e-02 -1.2793884992506721e-01
    3.1196831440101717e-02 -1.3000478891936273e-01
    2.5591577631445202e-02 -1.5815417871889664e-01
    3.6990988507513103e-02 -1.0947967302223602e-01
    3.0180630084255637e-02 -1.3377642608280788e-01
    3.0163735550334914e-02 -1.3335363133152678e-01
    3.1212014527323428e-02 -1.2931206018701932e-01
    2.9217796295786053e-02 -1.3769771126249344e-01
    2.8378780683200669e-02 -1.4248308225371684e-01
    2.9190848890342711e-02 -1.3817675184079178e-01
    1.8509993543279826e-02 -2.2542909091521532e-01
    1.6724073124382375e-02 -2.5132404698682581e-01
    1.3429238670638414e-02 -3.2406751034267228e-01
    1.1907004901697603e-02 -3.7906025639187485e-01
    1.1199799881239196e-02 -4.1090476865321524e-01
    1.1035863629460187e-02 -4.1847180240153758e-01
    9.8081830818126155e-03 -5.0176718847833535e-01
    9.4692557931390711e-03 -5.3178554160085512e-01
    9.4963666225334979e-03 -5.3020832652477390e-01
    9.5920361143853258e-03 -5.2135537468776716e-01
    9.6030502355266226e-03 -5.2135591071077059e-01
    9.5953411199234274e-03 -5.2152394416857173e-01
    9.5833698430492185e-03 -5.2296239217340790e-01
    9.6590264910801239e-03 -5.1603933917742939e-01
    9.9691096670662411e-03 -4.8944074058632253e-01
    1.0005351033776160e-02 -4.8526529523677914e-01
    1.0274479874577034e-02 -4.6556310997996925e-01
    1.0593988769645912e-02 -4.4541185539923045e-01
    1.0305542230005302e-02 -4.6385637829726284e-01
    1.0235944137584963e-02 -4.6915334272128173e-01
    1.0204763251654057e-02 -4.7172606874255052e-01
    1.0100848853908049e-02 -4.7816509747514196e-01
    9.9046212177725593e-03 -4.9480837232454772e-01
    9.7820267683517113e-03 -5.0376873726286497e-01
    9.6221980148644970e-03 -5.1831129376032503e-01
    9.4674158276948327e-03 -5.3494721335979489e-01
    9.3231208348217159e-03 -5.4837585939165889e-01
    9.3559134703217767e-03 -5.4502782196717647e-01
    9.3452438837940688e-03 -5.4654047419582263e-01
    9.1075029009616195e-03 -5.7300584572278479e-01
    8.8544581050883347e-03 -6.0887420734401554e-01
    8.6779388410218958e-03 -6.3524113781348990e-01
    8.4541500579078579e-03 -6.8142204653600569e-01
    8.1888971874078363e-03 -7.5555091304440880e-01
    7.9434623511792334e-03 -8.6820119476366242e-01
    7.8701796065773367e-03 -9.8758499457621829e-01
    7.8683209391953220e-03 -1.0566329165277648e+00
    7.9496309487910814e-03 -1.1629292305260919e+00
    8.1094646056429458e-03 -1.2801168695828069e+00
    8.2241572533778822e-03 -1.3580388665941152e+00
    8.5940126151728500e-03 -1.5378623773859366e+00
    8.8344769756253400e-03 -1.6344495684478153e+00
    9.0925137846704553e-03 -1.7370581640254974e+00
    1.0296035748618948e-02 -2.1551728531662233e+00
    1.0876635978195133e-02 -2.3403585062424370e+00
    1.1083366248012662e-02 -2.4038249011260682e+00
    1.1427125531327489e-02 -2.5092096096062235e+00
    1.1854003817390832e-02 -2.6383840491876889e+00
    1.1627043663721345e-02 -2.5719369261354910e+00
    1.1776852706744577e-02 -2.6128584535854209e+00
    1.1913328118635422e-02 -2.6538278118391392e+00
    1.2097400529752739e-02 -2.7099851567342297e+00
    1.2531478134884861e-02 -2.8351927261226524e+00
    1.2526303710526166e-02 -2.8349611465737539e+00
    1.2775791614401700e-02 -2.9050263970449759e+00
    1.2520653668889940e-02 -2.8348954992131152e+00
    1.2354413919386610e-02 -2.7874094233136946e+00
    1.2249278469311365e-02 -2.7557485752222042e+00
    1.2520101558545858e-02 -2.8343228295276486e+00
    1.2199001852080938e-02 -2.7406387309690627e+00
    1.2195865000438927e-02 -2.7400465369901941e+00
    1.2092236876344984e-02 -2.7091631601023702e+00
    1.1958503345035079e-02 -2.6679600271358597e+00
    1.1987024436248843e-02 -2.6804894608739844e+00
    1.2041336370650423e-02 -2.6945094224566191e+00
    1.2149457971335693e-02 -2.7253602463151356e+00
    1.2258844697451103e-02 -2.7563171008955254e+00
    1.2197773945850846e-02 -2.7404050752809819e+00
    1.1950289622500139e-02 -2.6663205022437078e+00
    1.1758638211390397e-02 -2.6109194933252327e+00
    1.1518374433246804e-02 -2.5357296112462717e+00
    1.1112680971816587e-02 -2.4152072674525296e+00
    1.0586305469001474e-02 -2.2511589320621983e+00
    1.0268138944897151e-02 -2.1460055095909620e+00
    9.5603610801767453e-03 -1.9087531056718736e+00
    9.0593312486216306e-03 -1.7211057523477085e+00
    8.8017744545621120e-03 -1.6239020068942340e+00
    8.6486644130362462e-03 -1.5560812677258939e+00
    8.4392454498200490e-03 -1.4604761551746828e+00
    8.2312034707750972e-03 -1.3596011379962631e+00
    7.8889147298476601e-03 -1.0985427499991209e+00
    7.8630154746681061e-03 -9.8644113857981608e-01
    7.8934128132122066e-03 -9.1112926656036675e-01
    7.9862762534084544e-03 -8.3900115339008330e-01
    8.1042487196957905e-03 -7.8448566758992988e-01
    8.3991131702341910e-03 -6.9518888144080260e-01
    8.8768948872786253e-03 -6.0953654362671095e-01
    9.3123495921212229e-03 -5.5202792074633245e-01
    9.5637849209175389e-03 -5.2290848949385815e-01
    9.6452701565766571e-03 -5.1619438900248782e-01
    1.0097400145414947e-02 -4.7822311968976766e-01
    1.0358720468834444e-02 -4.5983399617535320e-01
    1.1088118013271335e-02 -4.1735829670714736e-01
    1.2248902137275221e-02 -3.6462735324214091e-01
    1.2575372051077531e-02 -3.5241501121687513e-01
    1.2689789387753708e-02 -3.4790806660542745e-01
    1.3008103342014965e-02 -3.3695038622257451e-01
    1.3219213408018311e-02 -3.3081577083480196e-01
    1.3819005080424796e-02 -3.1329453732506318e-01
    1.4536964671613899e-02 -2.9508193916462860e-01
    1.4923220424345926e-02 -2.8622633499013656e-01
    1.6137854556312083e-02 -2.6144441187769263e-01
    1.6144313844506208e-02 -2.6231251341125605e-01
    1.5852936957123781e-02 -2.6677549043187537e-01
    1.5711165857120006e-02 -2.6866637254632209e-01
    1.5369103657123257e-02 -2.7588161501246744e-01
    1.5725980304726293e-02 -2.6928247243825437e-01
    1.6116784632033723e-02 -2.6136331248719047e-01
    1.6726642052594359e-02 -2.5199930621797867e-01
    1.6718420086079731e-02 -2.5085343356379608e-01
    1.6424077150805606e-02 -2.5660962985560870e-01
    1.4515303771680159e-02 -2.9499383213033953e-01
    1.3962228406169289e-02 -3.0797422841935579e-01
    1.4016419259888295e-02 -3.0819955798213433e-01
    1.4236639766852357e-02 -3.0135041868659107e-01
    1.3811071333398308e-02 -3.1249340985844826e-01
    1.5024331755570322e-02 -2.8274163428360483e-01
    2.3476149596254939e-02 -1.7381015485393361e-01
    2.6200090423631448e-02 -1.5532694899361665e-01
    2.9199886930001549e-02 -1.3875840155894623e-01
    2.1462600798101531e-02 -1.8949966448612135e-01
    2.3063621757104674e-02 -1.7620926242106269e-01
    2.3904274042886066e-02 -1.6898419332047140e-01
    2.9160493609517866e-02 -1.3762945772796670e-01
    3.8811539748909829e-02 -1.0318408203141539e-01
    3.3590837018772489e-02 -1.1929202673679412e-01
    3.0157274510582553e-02 -1.3391638623499749e-01
    2.9174963453195396e-02 -1.3763045043087563e-01
    1.1253508141664764e-02 -4.0777417736855848e-01
    1.0849459254070213e-02 -4.3086243549814479e-01
    1.0496505285157090e-02 -4.5124076699927923e-01
    9.5233738103903103e-03 -5.2888226712397124e-01
    9.4271875115455941e-03 -5.3786073523196576e-01
    9.5792968860020124e-03 -5.2332571742270506e-01
    9.7574412119546157e-03 -5.0793840163684856e-01
    9.7060342017902361e-03 -5.1064710966604365e-01
    9.6233421129054628e-03 -5.1812873106162283e-01
    9.6303902459419881e-03 -5.1809722288520432e-01
    9.8949045946897171e-03 -4.9595498738966132e-01
    1.0077326916599013e-02 -4.8021310445131282e-01
    1.0230089298877747e-02 -4.6969915192667411e-01
    1.0580227037295963e-02 -4.4529698338054169e-01
    1.0682939484400062e-02 -4.4140131620491746e-01
    1.0580485721385971e-02 -4.4535668502452092e-01
    1.0527599055887198e-02 -4.5132679274310411e-01
    1.0339824795555822e-02 -4.6523248589923022e-01
    1.0140737491466338e-02 -4.8138677385960793e-01
    9.9843144883505347e-03 -4.8938111706683313e-01
    9.7115531936188011e-03 -5.1272968383472550e-01
    9.5546232488129389e-03 -5.2734467324359491e-01
    9.4366450161572669e-03 -5.4114315676275315e-01
    9.2652666922369651e-03 -5.5776478023982001e-01
    9.0932705270169046e-03 -5.7691400070252807e-01
    8.9802259257825146e-03 -5.9465253820657427e-01
    8.9646092922481824e-03 -6.0035998769989185e-01
    8.7359033065719498e-03 -6.2874321376019560e-01
    8.5069273236238318e-03 -6.7259672561371409e-01
    8.3420949912191775e-03 -7.1149314442986544e-01
    8.2061187381107341e-03 -7.4945431824807862e-01
    8.0187825440192692e-03 -8.2227204391699316e-01
    7.8676982034701290e-03 -9.4773548439909261e-01
    7.8803755180623207e-03 -1.0714765715931471e+00
    7.9694862492862943e-03 -1.1830872389540259e+00
    8.0691107487912521e-03 -1.2632020698975666e+00
    8.2980083845371581e-03 -1.3910409903213732e+00
    8.4836644637241408e-03 -1.4878214321906063e+00
    8.7870663730701074e-03 -1.6195769393501767e+00
    8.9744832397844719e-03 -1.6962083858944892e+00
    9.4712555399991405e-03 -1.8832176961250886e+00
    1.1008983535043069e-02 -2.3858892598241321e+00
    1.1255054644752325e-02 -2.4629746339556737e+00
    1.1501633931081556e-02 -2.5373241220626457e+00
    1.1669151594280431e-02 -2.5860562714245008e+00
    1.1715812876989865e-02 -2.6018698851211228e+00
    1.1901655552794405e-02 -2.6566636668192629e+00
    1.1940481419398885e-02 -2.6683188622425327e+00
    1.2136114506607912e-02 -2.7271403054952628e+00
    1.2471952617711467e-02 -2.8248900753207487e+00
    1.2751065412019265e-02 -2.9063899014906838e+00
    1.3208674322671133e-02 -3.0379341545404386e+00
    1.3141322150708257e-02 -3.0183813269293438e+00
    1.3503187370792251e-02 -3.1215257504079195e+00
    1.3737630721473508e-02 -3.1878116631615812e+00
    1.3885476780207037e-02 -3.2301110379386810e+00
    1.4057006214390723e-02 -3.2786710457601984e+00
    1.4243556792830177e-02 -3.3303472922400870e+00
    1.4070425819425521e-02 -3.2818821930026827e+00
    1.3889036318004637e-02 -3.2312114099774965e+00
    1.3817916316817475e-02 -3.2105697466639134e+00
    1.3566938401741542e-02 -3.1403472124031158e+00
    1.3591259895222980e-02 -3.1462747704853902e+00
    1.3418873741534058e-02 -3.0982894848071174e+00
    1.3271760580216351e-02 -3.0562400079383107e+00
    1.3209919311460866e-02 -3.0379157691291079e+00
    1.2876120895395289e-02 -2.9426614421390060e+00
    1.2636007126548367e-02 -2.8728479593502971e+00
    1.2754475001914683e-02 -2.9072111930258151e+00
    1.2693076787719809e-02 -2.8896294395074795e+00
    1.2412634210320156e-02 -2.8077893987240814e+00
    1.2185634826042012e-02 -2.7416975611488068e+00
    1.2085893601821619e-02 -2.7117148748197897e+00
    1.1550378640383543e-02 -2.5503289326910994e+00
    1.1113685885703679e-02 -2.4185534004279439e+00
    1.0362056180257049e-02 -2.1820434636655941e+00
    9.5203932676404656e-03 -1.8990823687105884e+00
    9.2655878403732246e-03 -1.8073880982142561e+00
    8.9679116935296507e-03 -1.6944181294719407e+00
    8.7375481308441059e-03 -1.6020047589103124e+00
    8.4388310022148159e-03 -1.4666337880562061e+00
    8.1476281212962444e-03 -1.3077647946801692e+00
    7.9368809984455193e-03 -1.1495569717402512e+00
    7.8702186749714763e-03 -1.0423274040987309e+00
    7.8676849093385400e-03 -9.6149098833224411e-01
    7.9266933418400860e-03 -8.8607997533000649e-01
    8.0516990836739348e-03 -8.0748233405578429e-01
    8.1990867102272481e-03 -7.4683561103434426e-01
    8.7637891251371690e-03 -6.2534234628213492e-01
    8.8269245372825690e-03 -6.1749783971771899e-01
    8.9352065002638453e-03 -6.0138989632802364e-01
    9.0628021653179902e-03 -5.8218312179629239e-01
    9.3470333148750993e-03 -5.4851022029321261e-01
    9.6072340677273403e-03 -5.2842003574130758e-01
    9.9500284682637382e-03 -4.9404703060009880e-01
    1.0469577970117659e-02 -4.5501003219611696e-01
    1.0935377608720572e-02 -4.2689595218541693e-01
    1.1193489109375945e-02 -4.1338446112238569e-01
    1.1452507548389839e-02 -3.9908092047514859e-01
    1.1539363999569561e-02 -3.9497366326554362e-01
    1.1945854715496062e-02 -3.7802361012035751e-01
    1.2148258537149183e-02 -3.7076709244694872e-01
    1.2579358673413126e-02 -3.5439840248764592e-01
    1.2935721742970431e-02 -3.4014830945356389e-01
    1.3209936871056446e-02 -3.3123878613237273e-01
    1.3585792328988676e-02 -3.2140505935396396e-01
    1.3424352969281145e-02 -3.2531217518407946e-01
    1.3295687459458840e-02 -3.2996921230124088e-01
    1.3575924186179079e-02 -3.2088975126570690e-01
    1.4324495612145221e-02 -3.0068223257835164e-01
    1.4337291848226097e-02 -3.0157922887670052e-01
    1.4704414066220259e-02 -2.9091674103561260e-01
    1.4923377298777784e-02 -2.8602279189595203e-01
    1.5146916981183828e-02 -2.8281233228535618e-01
    1.4333699563210454e-02 -3.0061091021667324e-01
    1.3907386829457151e-02 -3.1135222417504416e-01
    1.3816565844454839e-02 -3.1413165620056954e-01
    1.3901848668571632e-02 -3.1238271714084487e-01
    1.3994302675460799e-02 -3.0931121357538094e-01
    1.4814252323716482e-02 -2.8881811652569744e-01
    1.7175485123249883e-02 -2.4380472365840405e-01
    2.8371319811160027e-02 -1.4617610795438504e-01
    3.1189928429700857e-02 -1.3335762939896317e-01
    3.1177373377558854e-02 -1.3211726619279265e-01
    2.6214375155397974e-02 -1.5795143692249020e-01
    2.8319665820539804e-02 -1.4653058923984033e-01
    3.0271457483648557e-02 -1.3735630189235690e-01
    3.5127695357989458e-02 -1.1818625992993685e-01
    1.0066466973978731e-02 -4.8252860550355486e-01
    1.0045427719636239e-02 -4.8449781490693078e-01
    9.9502412742885054e-03 -4.9153273764302463e-01
    1.0177649230068373e-02 -4.7607216208237935e-01
    1.0140255917596628e-02 -4.7696629362803700e-01
    1.0119207366236121e-02 -4.7897581533517641e-01
    1.0128030029366962e-02 -4.7922987765253772e-01
    1.0213077769433329e-02 -4.7189837998096784e-01
    1.0414690992096914e-02 -4.5711724453662739e-01
    1.0817646155765094e-02 -4.3500163272732895e-01
    1.0650727086978886e-02 -4.4256412230161629e-01
    1.0514685151547137e-02 -4.5361103658975499e-01
    1.0469053034664914e-02 -4.5288616276602334e-01
    1.0318324326831088e-02 -4.6444360652201067e-01
    1.0294653877292214e-02 -4.6770025556247175e-01
    1.0027180960232663e-02 -4.8379124192329009e-01
    9.9680424931440775e-03 -4.9248108442194533e-01
    9.8033316169235177e-03 -5.0834853844711358e-01
    9.5240837779402010e-03 -5.3192062825308006e-01
    9.5074513061980271e-03 -5.3912841524558219e-01
    9.3190107729504493e-03 -5.5199284687989658e-01
    9.1678158754749921e-03 -5.7104812980294295e-01
    8.9708213282841450e-03 -5.9972061708036595e-01
    8.8235675408820519e-03 -6.1534969756850333e-01
    8.6874094031212708e-03 -6.4339936007361009e-01
    8.5973157897964291e-03 -6.5866148408955971e-01
    8.3686359775753446e-03 -7.0334186594923020e-01
    8.1832033631156001e-03 -7.6347305287088552e-01
    8.0404593557341919e-03 -8.1782693050147115e-01
    7.9215575708083477e-03 -8.9040317179698492e-01
    7.8812373951024414e-03 -1.0217883384042561e+00
    7.9117695128173588e-03 -1.1163260395299426e+00
    8.0440724816613265e-03 -1.2411159536324730e+00
    8.2142819028307706e-03 -1.3469432702188491e+00
    8.4618818752538079e-03 -1.4752271134100212e+00
    8.6004178044155680e-03 -1.5321540161257283e+00
    8.9015495720772865e-03 -1.6674542824705052e+00
    9.1439432938427469e-03 -1.7604147436889848e+00
    9.6441453325814240e-03 -1.9370271462280642e+00
    1.1297698716875457e-02 -2.4736747872210132e+00
    1.1502799755566274e-02 -2.5369312088354796e+00
    1.1430717275537561e-02 -2.5145600373436006e+00
    1.1676229925754001e-02 -2.5893756952995637e+00
    1.1594725122924247e-02 -2.5646542341390446e+00
    1.1769988180929666e-02 -2.6170779141077740e+00
    1.2103879022087418e-02 -2.7155268976047173e+00
    1.2312130457013426e-02 -2.7747310199039994e+00
    1.2691622707336916e-02 -2.8888007016277757e+00
    1.3144657994653130e-02 -3.0192991353162415e+00
    1.3219704273097868e-02 -3.0405472304529630e+00
    1.3655268163849517e-02 -3.1647934597182905e+00
    1.3827649169321096e-02 -3.2122729490682023e+00
    1.4178770506072226e-02 -3.3112744126389693e+00
    1.4428938755683672e-02 -3.3818137253156868e+00
    1.4418680781558099e-02 -3.3791267712147950e+00
    1.4921957937958683e-02 -3.5191897410014139e+00
    1.5139379087008333e-02 -3.5795114860725779e+00
    1.5039717866161191e-02 -3.5514203445665289e+00
    1.5254580570770828e-02 -3.6113416047426230e+00
    1.5153628328289537e-02 -3.5831077529557880e+00
    1.4923349479191828e-02 -3.5196211974113791e+00
    1.4628734104247575e-02 -3.4373981852984232e+00
    1.4540803562840076e-02 -3.4126611877396327e+00
    1.4422157566175722e-02 -3.3806069640816148e+00
    1.4507662618710514e-02 -3.4047158254805621e+00
    1.4156765967681074e-02 -3.3054170762809489e+00
    1.4060688380764599e-02 -3.2790109138754704e+00
    1.3889774514359776e-02 -3.2309986554573991e+00
    1.3825478319893230e-02 -3.2119440532289900e+00
    1.3892735743604862e-02 -3.2315112248457960e+00
    1.3584828918613116e-02 -3.1443786594341900e+00
    1.3428440856768298e-02 -3.1002196489667471e+00
    1.2703316049836745e-02 -2.8899677712454435e+00
    1.2424067364995789e-02 -2.8085843819319316e+00
    1.2202208061335328e-02 -2.7442582967192521e+00
    1.1592113514702164e-02 -2.5635551241382983e+00
    1.1097462128856301e-02 -2.4112724431607111e+00
    1.0369180703440164e-02 -2.1834002288359167e+00
    1.0071305573632812e-02 -2.0858870318742211e+00
    9.3931356827113878e-03 -1.8541204780482829e+00
    9.0976671029775920e-03 -1.7408023983652521e+00
    8.8210343564197741e-03 -1.6282591653203089e+00
    8.4382393214721095e-03 -1.4610222557586918e+00
    8.0476192861306441e-03 -1.2435010529470174e+00
    7.9270132346951714e-03 -1.1108241590957961e+00
    7.8764284641220424e-03 -1.0552052121853559e+00
    7.8870230158815165e-03 -9.6578279758255714e-01
    7.8980445186283346e-03 -9.1238356033187940e-01
    8.0445597767747606e-03 -8.1687076542986892e-01
    8.1448239815971914e-03 -7.7552439925350969e-01
    8.5728498077590042e-03 -6.6251220625082907e-01
    8.6093133587828649e-03 -6.5570794581373582e-01
    8.7019063467325634e-03 -6.4259613834279772e-01
    8.7735933325503116e-03 -6.2623419814480219e-01
    8.9230042081351879e-03 -6.0735091964784527e-01
    8.9470472421134921e-03 -5.9992686438323861e-01
    9.1762770199803265e-03 -5.6656895635128823e-01
    9.4106815385992474e-03 -5.4513570808889278e-01
    9.5403663318080929e-03 -5.2796629365646175e-01
    9.6840439409328159e-03 -5.1314263286089334e-01
    9.9596301857754251e-03 -4.9440890838014823e-01
    1.0184414811573015e-02 -4.7391007053990969e-01
    1.0427847021393178e-02 -4.5979949686371369e-01
    1.0556963899402916e-02 -4.4820217321005990e-01
    1.1153280770762417e-02 -4.1375198319496148e-01
    1.1358752654697652e-02 -4.0601972724536894e-01
    1.1679384938208984e-02 -3.8834291695350470e-01
    1.1995228128012276e-02 -3.7526939762884082e-01
    1.2492584661655660e-02 -3.5800548847000757e-01
    1.2365341694777862e-02 -3.6126194363174535e-01
    1.2763348906197985e-02 -3.4770188906054234e-01
    1.2705630417994598e-02 -3.4843029852161428e-01
    1.2696327330241671e-02 -3.4780907776305642e-01
    1.3480857857882068e-02 -3.2635493146376787e-01
    1.3357656840397051e-02 -3.2691594059559981e-01
    1.3321306150780093e-02 -3.2974458050967886e-01
    1.3108797686037659e-02 -3.3744192244173987e-01
    1.3085747155344062e-02 -3.3595806912434079e-01
    1.3173930218857117e-02 -3.3463606137242252e-01
    1.3441655555137500e-02 -3.2463071011421468e-01
    1.3934324659392247e-02 -3.1164993018486170e-01
    1.4267578031362209e-02 -3.0511552973412542e-01
    1.4437036148661004e-02 -2.9821554831184538e-01
    1.6576054753223896e-02 -2.5582951401717297e-01
    2.1927324514373566e-02 -1.9236358737753786e-01
    3.3717389536742741e-02 -1.2573047332443976e-01
    3.6861257529417074e-02 -1.1691863691568276e-01
    3.5118911403524793e-02 -1.1989847491860829e-01
    1.0286229250641614e-02 -4.6638024433993291e-01
    1.0485988683160176e-02 -4.5343737222647995e-01
    1.0623810826331764e-02 -4.4441103927266484e-01
    1.0601947710759587e-02 -4.4628452555003673e-01
    1.0626537331267014e-02 -4.4412062306627476e-01
    1.0521319757092999e-02 -4.5227112575213257e-01
    1.0861745458419819e-02 -4.3087429244686598e-01
    1.0622134025171920e-02 -4.4396109650536891e-01
    1.0593595447617893e-02 -4.4658053058245262e-01
    1.0513897094540772e-02 -4.5152761755263104e-01
    1.0341115235210583e-02 -4.6279770731419356e-01
    1.0160888910986638e-02 -4.7534677535134728e-01
    9.9894880248534573e-03 -4.8824054792752625e-01
    9.8557632273455018e-03 -4.9909721395225409e-01
    9.6201869276236335e-03 -5.2102133491752634e-01
    9.4214080900551361e-03 -5.4017159717249219e-01
    9.2430298099829035e-03 -5.6232162670975572e-01
    9.1297823618419829e-03 -5.7686113905889924e-01
    9.0486613023856854e-03 -5.8482322500482342e-01
    9.0063044270887408e-03 -5.9273325329836624e-01
    8.8427485301661810e-03 -6.1500449091175380e-01
    8.6672426442048357e-03 -6.4372520829098268e-01
    8.5670826907673497e-03 -6.6530758658519684e-01
    8.4214748921849127e-03 -6.9221221074586581e-01
    8.2538921502778636e-03 -7.3795698260777265e-01
    8.1402598726387568e-03 -7.7522126517204648e-01
    7.9495555996309634e-03 -8.7932904396287048e-01
    7.8759820374621880e-03 -9.6916366278054034e-01
    7.9073550922855052e-03 -1.0844476930716445e+00
    7.9585342970196066e-03 -1.1647273636416757e+00
    8.1288883824422210e-03 -1.2903743038181954e+00
    8.3179022263815995e-03 -1.4030871566365124e+00
    8.5792714606058463e-03 -1.5290794953288562e+00
    8.7343234448424272e-03 -1.5943414398855393e+00
    9.2126703271900919e-03 -1.7856429040403530e+00
    9.2996835925153992e-03 -1.8179004324603256e+00
    9.7458208599054078e-03 -1.9726125944883051e+00
    1.1473834803300451e-02 -2.5256199875444882e+00
    1.1606878863524522e-02 -2.5631656679230317e+00
    1.1734040312629887e-02 -2.6033463948511208e+00
    1.1897752006839181e-02 -2.6559158312014399e+00
    1.2053899042764479e-02 -2.7014080733625252e+00
    1.2257734109865139e-02 -2.7618922907684711e+00
    1.2607038032753322e-02 -2.8593983701415735e+00
    1.3219501632497695e-02 -3.0400584480861075e+00
    1.3432658359432430e-02 -3.1010384097737469e+00
    1.3530587049648555e-02 -3.1257528830300569e+00
    1.3731040577954838e-02 -3.1858548127582416e+00
    1.3894627177990615e-02 -3.2322877288370808e+00
    1.4258810166112789e-02 -3.3336506107049924e+00
    1.4162630322739194e-02 -3.3069986831802294e+00
    1.4250375598602294e-02 -3.3319087537147216e+00
    1.4814137808088971e-02 -3.4892164237329002e+00
    1.4820292625664099e-02 -3.4908199294609221e+00
    1.5148569404312947e-02 -3.5816320012125749e+00
    1.5602543289825735e-02 -3.7071786824730117e+00
    1.5496482923476143e-02 -3.6782072945089181e+00
    1.5386307303050446e-02 -3.6469452561524447e+00
    1.5998796171747584e-02 -3.8154084116021290e+00
    1.5879936369064939e-02 -3.7829048880290612e+00
    1.5864514402418532e-02 -3.7790298004146337e+00
    1.5985271229225384e-02 -3.8123120323724717e+00
    1.6012027570365562e-02 -3.8188039364358817e+00
    1.5992889891683536e-02 -3.8142950160466316e+00
    1.5725513746457351e-02 -3.7414570358771351e+00
    1.5368153162638438e-02 -3.6424118305469984e+00
    1.5137876622037224e-02 -3.5790165670300533e+00
    1.5495125117009699e-02 -3.6773667175039395e+00
    1.5133813465524460e-02 -3.5780384680393711e+00
    1.4916342230306943e-02 -3.5180545843391982e+00
    1.5035849906265712e-02 -3.5499693655855649e+00
    1.4935882321431910e-02 -3.5231110652318800e+00
    1.5026691531360763e-02 -3.5469578107185469e+00
    1.4450152172945428e-02 -3.3849856469073791e+00
    1.3907853876629975e-02 -3.2336482124092543e+00
    1.3668105324509131e-02 -3.1654827457087502e+00
    1.2366043266172371e-02 -2.7925150091742674e+00
    1.1629177947046149e-02 -2.5745953751138639e+00
    1.1127750035548530e-02 -2.4213958407803347e+00
    1.1127277485773503e-02 -2.4216908751910062e+00
    1.0042474188856952e-02 -2.0746338546322591e+00
    9.4600692393040989e-03 -1.8697439501475330e+00
    9.3733694196974846e-03 -1.8421968346467965e+00
    8.9552701941239526e-03 -1.6843654738477358e+00
    8.1887981227615446e-03 -1.3311566664657053e+00
    7.9933766969084805e-03 -1.1960470190464132e+00
    7.9515998829390554e-03 -1.1498820513532295e+00
    7.8943169443425401e-03 -1.0792177741005120e+00
    7.8719519539161460e-03 -9.9598805252224398e-01
    7.9122992029020279e-03 -9.2227110166790771e-01
    7.9862149858913808e-03 -8.4423595834707821e-01
    8.0816722433290269e-03 -8.0590211896366504e-01
    8.4728644815076880e-03 -6.8223661167074179e-01
    8.4705985765748653e-03 -6.8576676434644335e-01
    8.4899232952246485e-03 -6.7813629531822062e-01
    8.5463221056760914e-03 -6.7255710605325725e-01
    8.6083300478801781e-03 -6.5076790810635576e-01
    8.6951108336696305e-03 -6.3727038950849979e-01
    8.8244622685027755e-03 -6.1476069321518756e-01
    8.9707129782745677e-03 -5.9363977671917534e-01
    9.0976965781090994e-03 -5.7860091040015660e-01
    9.1489204575428244e-03 -5.7066259449072476e-01
    9.3216394873054040e-03 -5.5219155989448476e-01
    9.3694598758089533e-03 -5.4642214498330810e-01
    9.5329953743442889e-03 -5.2916370863401763e-01
    9.6734296671058921e-03 -5.1531375156280590e-01
    9.6765314415303040e-03 -5.1497674422566297e-01
    9.8666507324258659e-03 -4.9878366199710872e-01
    1.0141078146304395e-02 -4.7704005896064411e-01
    1.0395866933487293e-02 -4.5856924452628378e-01
    1.0468724952324550e-02 -4.5558876721586800e-01
    1.0694109336220147e-02 -4.4055536696859859e-01
    1.1082907327318108e-02 -4.1812089477421910e-01
    1.1526843712112406e-02 -3.9673880416741208e-01
    1.1926106609627314e-02 -3.7888429118290051e-01
    1.2065998788223214e-02 -3.7385112508424473e-01
    1.2381501279433929e-02 -3.6050590345793548e-01
    1.2487196938538801e-02 -3.5656924406851798e-01
    1.2717695161616905e-02 -3.4911320051497385e-01
    1.2832724683780942e-02 -3.4494423155192022e-01
    1.2308812732842837e-02 -3.6308868009510448e-01
    1.2326321328285319e-02 -3.6235403886275419e-01
    1.2597685368964079e-02 -3.5309844538776941e-01
    1.3112271576467468e-02 -3.3612483943136040e-01
    1.4006985346473617e-02 -3.1002773794559252e-01
    1.4532837882376810e-02 -2.9664086736380901e-01
    1.6753615994154633e-02 -2.5416414206587762e-01
    1.8960338671683181e-02 -2.1969499688088726e-01
    1.0722577877988625e-02 -4.3829000855598488e-01
    1.0729937533574103e-02 -4.3935814576633703e-01
    1.0763869430121689e-02 -4.3687405003062529e-01
    1.0626668077455948e-02 -4.4339067785694219e-01
    1.0434381255685420e-02 -4.5725937881027895e-01
    1.0428437025297679e-02 -4.5679440935378318e-01
    1.0331658475439457e-02 -4.6509146325020362e-01
    9.8643621294784972e-03 -4.9877036566560368e-01
    9.5753632326725582e-03 -5.2454657062950760e-01
    9.4320644363703830e-03 -5.3849799023748279e-01
    9.3664044898435512e-03 -5.4531487823971503e-01
    9.3162891353044709e-03 -5.5044547548455225e-01
    9.1886877874390004e-03 -5.6497182072987107e-01
    9.1688034687171724e-03 -5.6833891120622637e-01
    8.9703258274743906e-03 -5.9282783075274237e-01
    8.8903020550417239e-03 -6.0356640053265387e-01
    8.8121507698747416e-03 -6.1922891984296280e-01
    8.7928047961201034e-03 -6.2252449457928527e-01
    8.6719419927344284e-03 -6.4542453622510632e-01
    8.5602526003994393e-03 -6.6489565238304393e-01
    8.4772764133614203e-03 -6.8004965608500600e-01
    8.3597336904988988e-03 -7.0997955113322420e-01
    8.2663660421065481e-03 -7.3536333763500772e-01
    8.1166772997180257e-03 -7.8110146540020009e-01
    7.9437108420869883e-03 -8.8326368235163766e-01
    7.8865240055458509e-03 -9.7997565246767149e-01
    7.8946231087875379e-03 -1.0869448217946580e+00
    8.0420247558163471e-03 -1.2343626809460906e+00
    8.1835428377087151e-03 -1.3278671354196796e+00
    8.4168838014083182e-03 -1.4481408763232726e+00
    8.5851689550037122e-03 -1.5285066494386712e+00
    8.7346179299683038e-03 -1.5958358523192262e+00
    9.2058519325171964e-03 -1.7817517620347354e+00
    9.3204524239749592e-03 -1.8246801288707795e+00
    9.6177915516798881e-03 -1.9235694035211583e+00
    9.9194253293481017e-03 -2.0354042956943661e+00
    1.1777993103456440e-02 -2.6158827589406828e+00
    1.1858964330246378e-02 -2.6403908851416036e+00
    1.1685787009772540e-02 -2.5892307452725771e+00
    1.1949190443965366e-02 -2.6685836213527034e+00
    1.2413022684273009e-02 -2.8066316757132719e+00
    1.3018703916292382e-02 -2.9817036394026468e+00
    1.3233114423624140e-02 -3.0412047464082552e+00
    1.3731318460965482e-02 -3.1862202037584484e+00
    1.3822892499703414e-02 -3.2097649212431261e+00
    1.4147621678442888e-02 -3.3033309597430964e+00
    1.4428054721455462e-02 -3.3813735489126375e+00
    1.4917046413737462e-02 -3.5173087836294847e+00
    1.5038897872042370e-02 -3.5512267143520577e+00
    1.5151098316149194e-02 -3.5823522483494856e+00
    1.5142161081434170e-02 -3.5799422077857130e+00
    1.5255489595640027e-02 -3.6113280612682392e+00
    1.6010602493174361e-02 -3.8185379279568563e+00
    1.6415183978017844e-02 -3.9293633647588111e+00
    1.6719233944240672e-02 -4.0116326622680996e+00
    1.6853669382218744e-02 -4.0485157568933694e+00
    1.6857379703087563e-02 -4.0499320044693432e+00
    1.6702040347062651e-02 -4.0076998520906191e+00
    1.6550584947385451e-02 -3.9664135413699526e+00
    1.7016608555887512e-02 -4.0925630521891536e+00
    1.7179314129169340e-02 -4.1373613934405373e+00
    1.7019645452450070e-02 -4.0936075261081548e+00
    1.7196761544281701e-02 -4.1416228270072493e+00
    1.7176376630550202e-02 -4.1362577186345595e+00
    1.6856722301770006e-02 -4.0499296065781953e+00
    1.6846955459308709e-02 -4.0472332997539278e+00
    1.6125503881356647e-02 -3.8501081954513854e+00
    1.6253244310221977e-02 -3.8857626613362179e+00
    1.5850802707013816e-02 -3.7754162212394404e+00
    1.6120237163657195e-02 -3.8485904158078466e+00
    1.5601920551784053e-02 -3.7071746816977269e+00
    1.5848735856835862e-02 -3.7748690895549895e+00
    1.5489891365899752e-02 -3.6747668001196363e+00
    1.5266555566185636e-02 -3.6121691761663079e+00
    1.5605344150317904e-02 -3.7057022595289508e+00
    1.5037659019121135e-02 -3.5494945851050552e+00
    1.4631433341413785e-02 -3.4362098399599876e+00
    1.3589522024477184e-02 -3.1432235284642815e+00
    1.2416303112533290e-02 -2.8076168499527552e+00
    1.2154716960880069e-02 -2.7302690690292439e+00
    1.1824103593959561e-02 -2.6289741934302082e+00
    1.0664839919067763e-02 -2.2740710734463399e+00
    1.0127710006082603e-02 -2.1011902711120118e+00
    9.7086989419164025e-03 -1.9595334707577963e+00
    9.3303717021961646e-03 -1.8275475460979846e+00
    8.6060891220172495e-03 -1.5376311827521130e+00
    8.2287963099472710e-03 -1.3531576917018366e+00
    8.0428665484436005e-03 -1.2355308731113699e+00
    7.9485580897226127e-03 -1.1561805741765838e+00
    7.8717437670561136e-03 -1.0229816767263511e+00
    7.8801692869340263e-03 -9.7794991322519076e-01
    7.9293902684551883e-03 -8.9640522304740300e-01
    8.0008767568587689e-03 -8.4784377397508581e-01
    8.0648021199279680e-03 -8.1063818955635836e-01
    8.3843795645094574e-03 -7.0495515238067574e-01
    8.3816388059647935e-03 -7.0492772601308051e-01
    8.4428557849108334e-03 -6.8462114544679498e-01
    8.4695422494729337e-03 -6.8051355499744348e-01
    8.5012319753051454e-03 -6.7249941756205700e-01
    8.5835211132682561e-03 -6.5580279361476657e-01
    8.6464935219280406e-03 -6.4386956720036692e-01
    8.7535964889726200e-03 -6.2569536518409596e-01
    8.8624758887776243e-03 -6.0960954392045119e-01
    8.9023396196516672e-03 -6.0270995501074232e-01
    9.0045676621750229e-03 -5.8736369038828862e-01
    9.0611516199432581e-03 -5.8242198094140474e-01
    9.1392208822544986e-03 -5.7193391857956444e-01
    9.2244002760256578e-03 -5.6089035034777468e-01
    9.2510260725881827e-03 -5.5728095700015645e-01
    9.3193257227989455e-03 -5.5066788555823520e-01
    9.5149978642281932e-03 -5.3123758548538624e-01
    9.6377462075460576e-03 -5.1850407624541905e-01
    9.7990942076911884e-03 -5.0354007513386134e-01
    9.8881572354284891e-03 -4.9678010710587561e-01
    1.0191069489063443e-02 -4.7340867782241075e-01
    1.0352117103239590e-02 -4.6220352141453808e-01
    1.0656887581851758e-02 -4.4208260526975812e-01
    1.0879220006949670e-02 -4.2884454781719944e-01
    1.1482160872258066e-02 -3.9849852439013284e-01
    1.1682766945629513e-02 -3.8869791847016022e-01
    1.2154851085002938e-02 -3.6848685803715941e-01
    1.2267857642922764e-02 -3.6563026700475687e-01
    1.2278300891083891e-02 -3.6462446717732061e-01
    1.2266315621473491e-02 -3.6484861274112845e-01
    1.2009681403922078e-02 -3.7464111101554382e-01
    1.2428857610159799e-02 -3.5870227811005589e-01
    1.3462309093136034e-02 -3.2534690014818834e-01
    1.3837765555110860e-02 -3.1415079518021571e-01
    1.0474286545445343e-02 -4.5329377793731801e-01
    1.0266786071341122e-02 -4.6855385383024861e-01
    1.0165038102907736e-02 -4.7518915145426821e-01
    1.0097352405962587e-02 -4.8169145964315180e-01
    9.8216331129892410e-03 -5.0221737116280507e-01
    9.7838008318996243e-03 -5.0573335418963494e-01
    9.6256851665826020e-03 -5.2026439745239594e-01
    9.4161846507948010e-03 -5.3945940921525781e-01
    9.3124881618343869e-03 -5.5048942420089297e-01
    9.2215940501901520e-03 -5.6116643839450109e-01
    9.1618037489687807e-03 -5.6850735858220469e-01
    9.0912450162263791e-03 -5.7732027319305168e-01
    9.0135309819663074e-03 -5.8563000431965861e-01
    8.9195557278175519e-03 -6.0102579604939932e-01
    8.8576326508754532e-03 -6.0915380254723051e-01
    8.7442584780508970e-03 -6.2682314234240288e-01
    8.6805106388155757e-03 -6.3983473227698751e-01
    8.5844919215419362e-03 -6.5770872016187387e-01
    8.4952481249888582e-03 -6.7620999262022030e-01
    8.3719147233428364e-03 -7.0478582679048096e-01
    8.2428734016930915e-03 -7.3797960690452269e-01
    8.1751086775991265e-03 -7.6404735426281101e-01
    7.9899938133139361e-03 -8.4402718960342571e-01
    7.8704053537009058e-03 -9.7938888489669784e-01
    7.8807784943528709e-03 -1.0553335002899158e+00
    8.0279218411740075e-03 -1.2244293801493495e+00
    8.2093234595773078e-03 -1.3401838905941321e+00
    8.4344919639282676e-03 -1.4594103188704302e+00
    8.5571265628429701e-03 -1.5177401318659061e+00
    8.7467020368922257e-03 -1.5986489560231290e+00
    9.1381345192629009e-03 -1.7550277451805123e+00
    9.5563792855289844e-03 -1.9069440727237750e+00
    9.7732287519799697e-03 -1.9833229060419422e+00
    1.0135686888854599e-02 -2.1051716453408211e+00
    1.2158607448224524e-02 -2.7283802923666367e+00
    1.2149238460595242e-02 -2.7275110408848664e+00
    1.2308953921147914e-02 -2.7723966595316289e+00
    1.2154878799541014e-02 -2.7289034754434347e+00
    1.2775128448819489e-02 -2.9088687515516156e+00
    1.3096243404396232e-02 -2.9991605815297304e+00
    1.3514070306462043e-02 -3.1234804158838707e+00
    1.3662201263730207e-02 -3.1661481712946533e+00
    1.3895352164290073e-02 -3.2314787383869419e+00
    1.4267078949693320e-02 -3.3338066039852583e+00
    1.4708356924693376e-02 -3.4597719852617845e+00
    1.4518918327760586e-02 -3.4069889444804655e+00
    1.5038418910697959e-02 -3.5501943107092573e+00
    1.5035699673377976e-02 -3.5485812028446078e+00
    1.4926807643826697e-02 -3.5205745267164819e+00
    1.5160160298452817e-02 -3.5845123650999238e+00
    1.5374591703452713e-02 -3.6439023653698781e+00
    1.6268178899729136e-02 -3.8893519288764189e+00
    1.6865298939760964e-02 -4.0511731916892941e+00
    1.7033748900272195e-02 -4.0971176031301768e+00
    1.7026695468263117e-02 -4.0953424907430787e+00
    1.7193495535896872e-02 -4.1409552362649338e+00
    1.7006869468735600e-02 -4.0909269300037083e+00
    1.6881160956930000e-02 -4.0555674921787190e+00
    1.7529358488646233e-02 -4.2317327116864423e+00
    1.8303819970967632e-02 -4.4405869493118679e+00
    1.8301295344717874e-02 -4.4392145485407823e+00
    1.9435987809302609e-02 -4.7434346487997523e+00
    1.8726180148082420e-02 -4.5532912218887560e+00
    1.8319904764375512e-02 -4.4445103209157795e+00
    1.8729733784610392e-02 -4.5548033801785746e+00
    1.7348988181214657e-02 -4.1826269395640496e+00
    1.8288975129197485e-02 -4.4366902019300252e+00
    1.8936241799952444e-02 -4.6099155844853090e+00
    1.8102604189718305e-02 -4.3861545092617469e+00
    1.8738026440075262e-02 -4.5565822980248072e+00
    1.8094021766971398e-02 -4.3840959084056310e+00
    1.7713804734785985e-02 -4.2812039048918793e+00
    1.7704581809299964e-02 -4.2772390964386986e+00
    1.7039637506757039e-02 -4.0969223941707638e+00
    1.6556837013529360e-02 -3.9662504611891043e+00
    1.7526501025159805e-02 -4.2284755772050486e+00
    1.7732432306390794e-02 -4.2851128284211777e+00
    1.6119718001256441e-02 -3.8467559573517360e+00
    1.6004692126072053e-02 -3.8145993022005849e+00
    1.3983566275554773e-02 -3.2556387393146866e+00
    1.3389814355712409e-02 -3.0836881455818368e+00
    1.2534161304409049e-02 -2.8381851756419656e+00
    1.2289360450789986e-02 -2.7649785302119945e+00
    1.1246022781941855e-02 -2.4536694434838142e+00
    1.0493316399503263e-02 -2.2195240152702485e+00
    1.0152730200162238e-02 -2.1075990558537483e+00
    9.0689113598838959e-03 -1.7277374451643168e+00
    8.3349237580615607e-03 -1.4116784422203390e+00
    8.1304519109397268e-03 -1.2953582276377467e+00
    7.9979831554272095e-03 -1.1983967632507422e+00
    7.9495986590868012e-03 -1.1322905864021096e+00
    7.8723031387639072e-03 -1.0076366418929479e+00
    7.8976687609661148e-03 -9.3191580460281243e-01
    7.9619548395531529e-03 -8.6429912535107789e-01
    8.0240559653263419e-03 -8.3296549595305813e-01
    8.1029016623592794e-03 -7.8706558650009995e-01
    8.3721651414157133e-03 -7.0346465788580537e-01
    8.3998814503199459e-03 -6.9535904435105322e-01
    8.4248462018470388e-03 -6.8891337523200424e-01
    8.4475111070212647e-03 -6.8222177647349702e-01
    8.5010687325747861e-03 -6.7153540410217061e-01
    8.5433521695812698e-03 -6.6286361833398211e-01
    8.6228363274184552e-03 -6.4874162722165907e-01
    8.7145044435982585e-03 -6.3366609416120534e-01
    8.7631919405568148e-03 -6.2290425941480443e-01
    8.8843150945688131e-03 -6.0522987592908617e-01
    8.9983235612314076e-03 -5.8920856619915607e-01
    8.9960437249647727e-03 -5.8944319714855686e-01
    9.0447494690197722e-03 -5.8376711740185516e-01
    9.0512447898960357e-03 -5.8204619466098462e-01
    9.1963851341302499e-03 -5.6446924025129797e-01
    9.1358229964153565e-03 -5.7126817523375106e-01
    9.2093294684290911e-03 -5.6228957870906848e-01
    9.2749774389339658e-03 -5.5547165921477193e-01
    9.3404089308614258e-03 -5.4826153506397790e-01
    9.4663400649386831e-03 -5.3376182285420126e-01
    9.5856395377337724e-03 -5.2308624891494837e-01
    9.6728544611419925e-03 -5.1456908126504142e-01
    9.9393760471694799e-03 -4.9362128470475602e-01
    1.0135371302869929e-02 -4.7638583156084485e-01
    1.0457727010573511e-02 -4.5473622641132794e-01
    1.0928778369044401e-02 -4.2710472604190480e-01
    1.1272143290779753e-02 -4.0760434176382471e-01
    1.1959204577019447e-02 -3.7639079041883466e-01
    1.1824667342095724e-02 -3.8336744442787624e-01
    1.1871502354744138e-02 -3.8101087026887004e-01
    1.2061357977412439e-02 -3.7323434045674547e-01
    1.2486211060706298e-02 -3.5616665022183097e-01
    1.0095371374203436e-02 -4.8026953598661465e-01
    1.0050934690824026e-02 -4.8467067768624095e-01
    9.8479196638923371e-03 -5.0051739329805744e-01
    9.7637558967499719e-03 -5.0779413741678547e-01
    9.7413564683344004e-03 -5.1005607639735684e-01
    9.4365016583005598e-03 -5.3805473988245467e-01
    9.4279823299595299e-03 -5.3981995250732517e-01
    9.2989483977692893e-03 -5.5257418852719009e-01
    9.1475457670663497e-03 -5.7013371466547214e-01
    9.1686671007523285e-03 -5.6930337335859382e-01
    9.0602564170014516e-03 -5.8044161756162471e-01
    8.9542245698062753e-03 -5.9512027956856639e-01
    8.9104105120402007e-03 -6.0289666882100845e-01
    8.9206362115945431e-03 -5.9968899764310990e-01
    8.8851198806855665e-03 -6.0531544506640556e-01
    8.7828285507574842e-03 -6.1954903268255712e-01
    8.6897656949113614e-03 -6.3743991745175055e-01
    8.5101646639495279e-03 -6.7832981479995391e-01
    8.3588805907132534e-03 -7.0952145249407195e-01
    8.2893409834946460e-03 -7.3180443854401811e-01
    8.1222976296182088e-03 -7.7886932252460006e-01
    7.9181494982643718e-03 -9.0018491746934959e-01
    7.8796758342038337e-03 -9.8305999571221669e-01
    7.9645755602132367e-03 -1.1611653003304652e+00
    8.1072817268952602e-03 -1.2753212353412724e+00
    8.3509279541199351e-03 -1.4116150476540335e+00
    8.4800599032933809e-03 -1.4818978037924762e+00
    8.6953880817673360e-03 -1.5788899134215320e+00
    8.9663100305869738e-03 -1.6855732098676806e+00
    9.4340587847270233e-03 -1.8644289900247777e+00
    9.5926675966156016e-03 -1.9172058144654573e+00
    1.0026327300149889e-02 -2.0668227151841854e+00
    1.1585837955065587e-02 -2.5606305456882499e+00
    1.1782806953602181e-02 -2.6171285853241439e+00
    1.2204866721437647e-02 -2.7426883482558955e+00
    1.2967429829838343e-02 -2.9629754544524740e+00
    1.3300653417458308e-02 -3.0598559723558987e+00
    1.3355187576865334e-02 -3.0758213898192808e+00
    1.3526668327953489e-02 -3.1203543163310563e+00
    1.3584647999950241e-02 -3.1407173444590839e+00
    1.3731472705337594e-02 -3.1840386865148380e+00
    1.4161722504443692e-02 -3.3058229902039740e+00
    1.4618214696216929e-02 -3.4337461311918829e+00
    1.5028256546284431e-02 -3.5481419034080557e+00
    1.5483285754416751e-02 -3.6742890744434535e+00
    1.4533541644170691e-02 -3.4096996213081705e+00
    1.4622975549508839e-02 -3.4351848893830610e+00
    1.4062466332532121e-02 -3.2770250263261702e+00
    1.4331774627751403e-02 -3.3549246267011692e+00
    1.4937015461025426e-02 -3.5223274209817612e+00
    1.5360305898531233e-02 -3.6406936804205010e+00
    1.6111836669145310e-02 -3.8465848583003317e+00
    1.7564990980830808e-02 -4.2408614383441412e+00
    1.7546486501164832e-02 -4.2358877943100364e+00
    1.6719963663420254e-02 -4.0115570489158330e+00
    1.7185688031491803e-02 -4.1387973351781149e+00
    1.6408537304187284e-02 -3.9278669540780129e+00
    1.6552426379040572e-02 -3.9667402981300759e+00
    1.8107275134055360e-02 -4.3874533314151645e+00
    1.9211158871178795e-02 -4.6825371697048634e+00
    2.1519429709950803e-02 -5.2960880211773382e+00
    2.1856683990440925e-02 -5.3858953300320085e+00
    2.0866865586112393e-02 -5.1219129553012275e+00
    1.9959058278836112e-02 -4.8828098006623470e+00
    1.9698637217458858e-02 -4.8130564139239329e+00
    1.8525075590812783e-02 -4.4995635159941187e+00
    1.8325036503166317e-02 -4.4458187175882466e+00
    1.9949776170768933e-02 -4.8805620238765215e+00
    1.9440079596288115e-02 -4.7438951329484116e+00
    2.1139471873977748e-02 -5.1953360876164130e+00
    2.0844957981962946e-02 -5.1176655895324892e+00
    1.9682530716668249e-02 -4.8092799534862571e+00
    1.7897808100579785e-02 -4.3303818951173270e+00
    1.6708488220464595e-02 -4.0072427890684033e+00
    1.5502869212699021e-02 -3.6775416405630561e+00
    1.6426095402886948e-02 -3.9298343862150196e+00
    1.7187368062429799e-02 -4.1368230594368232e+00
    1.7039040084370405e-02 -4.0970145874839838e+00
    1.7365630294454180e-02 -4.1850167531532243e+00
    1.6703616386923074e-02 -4.0070376634765807e+00
    1.4942907724952869e-02 -3.5187531534418715e+00
    1.3106472797383284e-02 -3.0021230055108896e+00
    1.2373967451017855e-02 -2.7906936004236740e+00
    1.2166546797751024e-02 -2.7300496116669786e+00
    1.1883010501608546e-02 -2.6453883966850831e+00
    1.0887782577681188e-02 -2.3454945967488450e+00
    1.0209105491559133e-02 -2.1254250763857252e+00
    9.6228013192396870e-03 -1.9313972253388851e+00
    8.4889234356379500e-03 -1.4819290861332712e+00
    8.2154594862264129e-03 -1.3425690626366660e+00
    8.0207007185818975e-03 -1.2180456287336627e+00
    7.9534116300249633e-03 -1.1554096288503739e+00
    7.8887634448353196e-03 -1.0408163341306429e+00
    7.8835692720727966e-03 -9.7858099776294616e-01
    7.9459614350103677e-03 -8.9638143496265743e-01
    7.9671414357620589e-03 -8.6535837255560910e-01
    8.0286942197609224e-03 -8.2352918760964078e-01
    8.4391171649583225e-03 -6.9175453134862519e-01
    8.4182875333459039e-03 -6.9012480359872375e-01
    8.4296257835176341e-03 -6.8886668556863651e-01
    8.5042172885073548e-03 -6.7760073184241820e-01
    8.5472031641757769e-03 -6.6300467635560967e-01
    8.6170688789259913e-03 -6.5106080044166781e-01
    8.5872517945152545e-03 -6.5364140130016124e-01
    8.7574645373208002e-03 -6.2454762376826112e-01
    8.8305989092919961e-03 -6.1450579468779010e-01
    8.8593653245466562e-03 -6.0856789073667894e-01
    8.9475175032757114e-03 -5.9635668563355282e-01
    8.9358085153031196e-03 -5.9836935983039585e-01
    8.9579671276606380e-03 -5.9480075156305368e-01
    9.0327534522760666e-03 -5.8584751110540678e-01
    9.0476374025632838e-03 -5.8206467289823793e-01
    9.0615574617732009e-03 -5.8010690352740457e-01
    9.1318754600289015e-03 -5.7322267377295610e-01
    9.1360196949612383e-03 -5.7110133726391499e-01
    9.2018847710879578e-03 -5.6442471986903986e-01
    9.2716143650584497e-03 -5.5547343133129301e-01
    9.2592117419925020e-03 -5.5669542153961149e-01
    9.3636434157195313e-03 -5.4673093498727776e-01
    9.3671050864435040e-03 -5.4457777610401947e-01
    9.4363957991595304e-03 -5.3743920203771445e-01
    9.6312854510665711e-03 -5.2002276186312379e-01
    9.7279030367421922e-03 -5.0889162887132888e-01
    1.0073360617493133e-02 -4.8238268294934239e-01
    1.0351036795216418e-02 -4.6220304324107087e-01
    1.0540591296301770e-02 -4.4920912088472215e-01
    1.0801997627314345e-02 -4.3449696107838576e-01
    1.1265019746684909e-02 -4.0798341412445921e-01
    9.7151563259463402e-03 -5.1125029685271250e-01
    9.7828578612012621e-03 -5.0595541695070889e-01
    9.6409092441531122e-03 -5.1927471728196317e-01
    9.6364930578264375e-03 -5.1840331339109902e-01
    9.5216789048695738e-03 -5.3133604048038630e-01
    9.5321470017938077e-03 -5.2946843749986872e-01
    9.5284793166832259e-03 -5.2908887112314174e-01
    9.4314841976764763e-03 -5.3774689543684107e-01
    9.3392042315441348e-03 -5.4697360146406926e-01
    9.2789199892491046e-03 -5.5746295778547561e-01
    9.1756062379349020e-03 -5.6666512157322535e-01
    9.0922130041007302e-03 -5.7651132374559810e-01
    9.0616658555032013e-03 -5.8162934624324991e-01
    8.9700555471862869e-03 -5.9295481374895087e-01
    8.9088652989728224e-03 -6.0241192274230759e-01
    8.6552644153840026e-03 -6.4088888689598877e-01
    8.5026553998479512e-03 -6.7416152266637575e-01
    8.3597929239597017e-03 -7.1007136159889317e-01
    8.1683373948463877e-03 -7.6417764063827609e-01
    7.9640537579172624e-03 -8.5850111212796687e-01
    7.9129596274526027e-03 -9.3291694837292116e-01
    7.8941549582068199e-03 -1.0967594411658621e+00
    8.0080717142641620e-03 -1.2030211170658016e+00
    8.1774467067236931e-03 -1.3286511680308573e+00
    8.3229558100509013e-03 -1.4042468003393840e+00
    8.5719839704539030e-03 -1.5207806901768257e+00
    8.8634681759871773e-03 -1.6458243848352661e+00
    9.3435192606811275e-03 -1.8281829381568009e+00
    9.4552597844851337e-03 -1.8685425495208128e+00
    9.6905791650803499e-03 -1.9525566960856016e+00
    1.0763450485701183e-02 -2.3016527757768324e+00
    1.0780898294875014e-02 -2.3114892549415416e+00
    1.1773374559357723e-02 -2.6136348344170486e+00
    1.2598143542084262e-02 -2.8550706272969162e+00
    1.3430728973906646e-02 -3.0969526017698303e+00
    1.3984341728480327e-02 -3.2525127165009566e+00
    1.3520072603349439e-02 -3.1182246342686972e+00
    1.3209956062185979e-02 -3.0353035605217040e+00
    1.1595998074426898e-02 -2.5610169680406720e+00
    1.3655323903347222e-02 -3.1614043596903860e+00
    1.4337029850969208e-02 -3.3556918034573004e+00
    1.4940220649143356e-02 -3.5210843205321907e+00
    1.6253516392863696e-02 -3.8851153296118399e+00
    1.6687071945506886e-02 -4.0034345016761410e+00
    1.6417741387829862e-02 -3.9256391368261050e+00
    1.5980019380200799e-02 -3.8105618762639608e+00
    1.4727368470730206e-02 -3.4596915699775805e+00
    1.4816069596685112e-02 -3.4897056012335295e+00
    1.5251381779252105e-02 -3.6106195106327696e+00
    1.5999778533601627e-02 -3.8156795945791702e+00
    1.7192125743517066e-02 -4.1405856707079574e+00
    1.8771243151165393e-02 -4.5644215468612321e+00
    1.8081115726056567e-02 -4.3797384022432135e+00
    1.8959305820198634e-02 -4.6157271926164096e+00
    1.7046355464586577e-02 -4.1006217240606349e+00
    1.7361712070381712e-02 -4.1863953887080276e+00
    1.6259596601141509e-02 -3.8876001580510153e+00
    1.6135412488042147e-02 -3.8530695038919189e+00
    1.8729596431471030e-02 -4.5542515115223292e+00
    1.9213002917394424e-02 -4.6836292878859815e+00
    2.1166149303549282e-02 -5.2029666342226415e+00
    2.3017645916204775e-02 -5.6914912704913263e+00
    2.2648179999391248e-02 -5.5942049497227613e+00
    2.0837492315865333e-02 -5.1157846186687790e+00
    1.9956648130417139e-02 -4.8822431968882665e+00
    1.7919643282806760e-02 -4.3364089945050033e+00
    1.7898852750844615e-02 -4.3316668777796634e+00
    1.8988573718069512e-02 -4.6229401981965337e+00
    2.0833332743900725e-02 -5.1151478752706288e+00
    2.1835704317581833e-02 -5.3805996198479615e+00
    2.4972186392349702e-02 -6.2037017231024771e+00
    2.6805408906137647e-02 -6.6829254402506075e+00
    2.1179476322023681e-02 -5.2041662020933783e+00
    1.6547736857747082e-02 -3.9637269341783452e+00
    1.9442452706646574e-02 -4.7427026618617036e+00
    1.7374738704377737e-02 -4.1880535102602972e+00
    1.6857492139969069e-02 -4.0480535566009230e+00
    1.8534616973404413e-02 -4.4993798151966011e+00
    1.7730898333754241e-02 -4.2838627507149187e+00
    1.8731124959172854e-02 -4.5516633650790039e+00
    1.7721248153842357e-02 -4.2773410797715972e+00
    1.3677702483637359e-02 -3.1645029053002323e+00
    1.3666386149505176e-02 -3.1621369392085179e+00
    1.2629892269211716e-02 -2.8619743767827908e+00
    1.2479819827045050e-02 -2.8228143331284010e+00
    1.2121456901826332e-02 -2.7160871439154595e+00
    1.1002927976461756e-02 -2.3777365429548998e+00
    1.0958647468021844e-02 -2.3662209910623178e+00
    1.0184422982015827e-02 -2.1207210748606586e+00
    8.6639602440007259e-03 -1.5619211650490858e+00
    8.3382229041383971e-03 -1.4124007101519780e+00
    8.1527615141195921e-03 -1.2991947362327465e+00
    7.9667021269421035e-03 -1.1701495759578342e+00
    7.9008462693047326e-03 -1.0855143099807503e+00
    7.8853074992524287e-03 -1.0013976726703444e+00
    7.9008386517737100e-03 -9.3576184290200137e-01
    7.9327604941953796e-03 -8.6952936655751301e-01
    8.0252254450254839e-03 -8.2363619991212522e-01
    8.0805565963432448e-03 -7.9239783370369388e-01
    8.4586254250492866e-03 -6.8687550683410614e-01
    8.4492448062049828e-03 -6.8223510023435530e-01
    8.4809167905288037e-03 -6.7541160511608112e-01
    8.5853361158896458e-03 -6.5923894645817449e-01
    8.5237208735141467e-03 -6.6624627007647830e-01
    8.5788803403594842e-03 -6.5500295618274096e-01
    8.6606520844959480e-03 -6.4051865318335033e-01
    8.7448166634411240e-03 -6.2631849542449824e-01
    8.8629775205423221e-03 -6.0924536824599917e-01
    8.8660768241411673e-03 -6.0842557417061949e-01
    8.9481366839512244e-03 -5.9620185907936607e-01
    9.0285140801915423e-03 -5.8598909379531539e-01
    9.0468746048871090e-03 -5.8178603644230764e-01
    9.0920017327634408e-03 -5.7658182153494753e-01
    9.2165203352037768e-03 -5.6236719581655159e-01
    9.1963253499112926e-03 -5.6427464355776347e-01
    9.2060817001158174e-03 -5.6444854788322563e-01
